
ReLU weights
0.093898356, -0.042484663, -0.08493983, 0.10971761, -0.06294623, 0.04471332, 0.040333867, -0.10639788, 0.06459154, -0.14638834, -0.03599701, 0.09958024, -0.07430661, -0.05311194, 0.09151283, 0.027556866, 0.09764403, 0.043541238, -0.021885425, -0.033034965, -0.114480704, 0.06603451, 0.09303944, 0.022136763, -0.06381535, -0.0044228286, 0.09665555, -0.05057223, -0.029932551, 0.073763475, -0.07370764, -0.0024899542, 0.113659054, -0.1398209, -0.05089535, -0.04404839, -0.05309905, -0.04562015, 0.028241813, 0.04588276, 0.039833277, -0.06612198, -0.006106138, -0.086137906, -0.057843193, 0.12464875, -0.065216854, -0.07732662, -0.14458302, -0.039425418, 0.08228178, 0.02274993, -0.099320434, -0.12612267, 0.12093228, 0.023799703, 0.1389566, 0.14689273, -0.14043015, 0.018555313, -0.05967374, -0.08598363, -0.022613391, 0.060229644, 0.047894135, 0.011270121, 0.13153657, -0.02378884, -0.05353403, -0.124130934, 0.124237865, 0.035608456, 0.0034688413, 0.10504636, 0.03231822, -0.13268004, -0.068875745, -0.08550314, -0.09930234, 0.09406644, 0.14067271, -0.09912245, 0.11054158, 0.09550825, -0.065793194, -0.14110054, -0.07013752, -0.0700752, 0.04094866, -0.026997164, 0.029460028, -0.02830027, -0.031450026, -0.012841985, -0.017379835, -0.12367247, -0.13476147, 0.004164517, 0.08781618, 0.0312922, -0.006974444, 0.07626179, 0.011934906, 0.10724583, -0.085698254, -0.12565482, 0.07811554, 0.108668685, 0.12594095, -0.02094829, 0.029565126, -0.05420856, -0.102658, 0.037023738, -0.030238919, -0.091170505, 0.080950946, 0.0942913, 0.11615646, -0.034695998, 0.057148367, -0.08545151, 0.05815807, -0.052335598, -0.010371223, -0.032278597, -0.09002066, 0.10485703
-0.074901395, 0.03581312, -0.046099816, 0.0862297, 0.12759146, -0.059338313, 0.021328762, 0.07879439, -0.06710613, -0.07706285, 0.03510507, 0.11079597, 0.1241608, -0.03738464, -0.14398974, 0.16405094, 0.108774565, 0.076749034, 0.04771327, -0.10039764, -0.15008695, -0.07323753, -0.12715347, -0.15423195, -0.14702734, 0.011564567, 0.058402393, -0.13706863, 0.03726282, 0.02430279, -0.13398491, -0.12823114, 0.031871963, 0.07365801, -0.06819155, -0.0651501, -0.038811464, 0.11847151, -0.1405293, 0.17165966, -0.067138955, 0.03950362, -0.0105284, -0.0698935, 0.13069376, -0.13327836, 0.115667015, 0.06905681, 0.09245537, 0.057171408, -0.12710054, -0.043979898, 0.010051968, -0.09278987, 0.061554234, 0.024519503, -0.010606511, -0.09621156, 0.091540515, -0.060298923, -0.023158547, 0.09072705, -0.04312211, 0.11042526, -0.029331893, -0.045858387, -0.054104947, 0.11199775, 0.05452495, -0.117684655, -0.07114189, -0.0150871435, 0.14106688, -0.107764125, 0.03820526, 0.10820436, 0.01887146, -0.13932228, -0.110626, 0.06615746, -0.11540573, 0.08685044, 0.084542826, -0.0701029, 0.063277714, 0.03161642, -0.056195877, 0.08757287, -0.050052904, -0.008448115, 0.042217586, -0.0015321355, -0.11238559, -0.11706599, -0.090581425, -0.0036274493, -0.14890938, 0.09370903, -0.119930595, -0.14877182, 0.047979593, 0.09015967, 0.101853326, -0.11217089, 0.043629978, 0.06498143, -0.10521248, 0.07488314, 0.025956146, 0.112008475, 0.15109333, 0.15605359, -0.07388704, -0.121221855, 0.06745246, -0.046216607, 0.0247777, -0.04707526, -0.0843404, -0.17513621, 0.06415029, 0.031457547, 0.08295377, 0.04032752, 0.17131074, 0.005807962, 0.026588183, -0.1293748
-0.104465015, -0.09574865, 0.23256408, -0.1383958, -0.08537501, 0.08757169, -0.14980994, -0.072036035, 0.18192317, -0.10352008, -0.11788099, 0.03407959, 0.053827163, 0.07522116, -0.06980338, 0.034265976, -0.15085633, -0.045992244, 0.082678095, 0.11067832, -0.07747146, -0.011031629, 0.024076434, -0.14615713, 0.0047905506, 0.056856748, 0.24052055, 0.017609315, -0.0637403, -0.07677221, -0.05406314, 0.23880388, -0.12812686, -0.03254107, 0.10565964, 0.28013402, -0.025917117, -0.22296156, 0.03150381, -0.014740782, -0.11825184, 0.0044885585, 0.014802501, 0.06662491, 0.1053287, 0.054897003, 0.063076906, -0.02179234, 0.078397684, -0.057960015, -0.062352438, -0.02743034, 0.13433567, 0.16068187, -0.08967278, -0.11923212, 0.05358217, 0.07347015, -0.047390293, -0.038037706, -0.069598675, -0.0103468625, 0.054475576, -0.014332739, 0.0543031, -0.08307245, 0.17648353, -0.031208288, 0.2093614, 0.10293991, 0.05103041, 0.023030125, 0.13350001, 0.09316883, -0.13226005, -0.033795346, 0.000140219, 0.12868306, -0.05914095, 0.12163971, -0.076743096, 0.2663033, -0.17985438, -0.036863904, 0.16517092, 0.09938315, -0.046958514, -0.23818733, -0.00056653726, 0.07687769, 0.063224025, 0.22699897, -0.021612236, 0.05781565, 0.019367224, -0.022604298, 0.09539942, 0.09658633, 0.030893885, 0.12586023, -0.13734542, 0.0040498935, 0.14033115, 0.006253265, 0.019893192, -0.04047935, -0.06789556, -0.022349628, -0.06535484, 0.049121592, 0.019375592, 0.13855247, -0.1514739, 0.046510328, 0.09350541, -0.05436748, 0.008949835, -0.010473636, -0.03654513, 0.07587739, -0.074651904, 0.0903259, 0.18178676, -0.029453836, 0.12571712, 0.004730102, 0.29086784, -0.03002945
-0.026767025, 0.097323835, 0.37391686, -0.22437958, -0.021581812, 0.001276559, -0.2322755, -0.08519565, 0.34578928, -0.034871034, 0.055523306, 0.2617753, -0.08848831, -0.23504564, 0.12409322, 0.17380996, -0.18590508, 0.02973077, 0.17321324, 0.20662218, 0.11390345, -0.13002233, -0.17819194, -0.032155387, -0.114250556, 0.030877315, 0.46611676, 0.13527226, 0.0431311, -0.040879596, -0.19976456, 0.3267223, -0.11267618, -0.15962228, 0.08391685, 0.21247746, 0.014528313, -0.36009315, -0.36347204, 0.08522155, -0.19240798, -0.06606489, -0.029586777, 0.24425766, 0.2520216, -0.17982809, -0.11513408, -0.07566035, -0.19220278, -0.024644995, -0.13920435, -0.032251142, 0.17923252, 0.20931794, -0.17047451, -0.06207458, -0.28859904, 0.49360391, 0.16873139, -0.007882391, -0.1432654, 0.027783645, -0.070470676, 0.056574278, 0.32963413, -0.2303448, 0.1527414, -0.020358678, -0.0012620899, 0.24516746, 0.029406903, -0.31349555, 0.20757607, -0.06482392, -0.33757195, 0.24763134, -0.16650566, 0.06345561, -0.015585753, 0.23328555, -0.105778225, 0.5083029, -0.3982147, 0.16702878, 0.27405515, 0.14819668, -0.42601135, -0.3298476, 0.10901422, -0.0939308, -0.21486455, 0.16376951, -0.14579551, 0.009055327, -0.05554061, -0.10633884, -0.21809602, 0.12781562, 0.10456341, -0.08031808, -0.44617152, 0.10317474, -0.006940778, -0.041345663, 0.34328538, 0.09370246, 0.08492192, -0.038585383, 0.03451561, 0.1784589, 0.3173214, 0.11432968, -0.052878916, 0.15045694, 0.006769571, 0.17063363, -0.061415672, -0.026574267, -0.11974358, -0.20671527, -0.06698758, 0.32631883, 0.2863508, 0.08585687, 0.13998686, 0.0674337, 0.31284958, 0.07435381
0.16885838, -0.39513522, 0.2823294, -0.030055912, 0.04604802, 0.00010541436, -0.51835907, -0.2345693, 0.32293218, -0.24358797, 0.016743777, 0.0633256, -0.07363054, -0.34372282, 0.19607179, 0.39668924, -0.3113982, 0.16007277, 0.26525477, 0.079026334, 0.05267059, -0.2654207, -0.35799134, 0.067607544, -0.008845927, 0.15328234, 0.7117167, 0.07665681, -0.118943155, 0.11852632, -0.51732177, 0.71324164, -0.08430774, -0.23412953, 0.18167481, 0.40048873, -0.4524641, -0.28771862, -0.4102911, 0.04021457, 0.07003071, -0.16491628, 0.18489166, 0.075661026, 0.17831819, -0.026677357, -0.227496, -0.15108024, -0.16488367, -0.0029883818, -0.0396605, -0.13168468, 0.36181512, 0.3069372, -0.075767726, -0.18766418, -0.35032907, 0.7206053, 0.17580557, -0.14453784, -0.3578671, 0.07643619, -0.22470507, -0.05638536, 0.6708514, -0.13779707, 0.4857159, -0.17609353, 0.30258676, 0.4408374, -0.04444165, -0.41117963, 0.2198328, -0.23052248, -0.34674236, 0.08540891, -0.31524757, 0.29820856, 0.30016345, 0.23383132, 0.22781569, 0.47524655, -0.26650876, 0.24641696, 0.5171126, 0.052884445, -0.5200912, -0.40468895, 0.21296364, -0.07465896, -0.13378529, 0.3077039, -0.17485473, -0.0073203743, -0.012558299, -0.16339557, -0.14893366, -0.114421755, 0.021611558, -0.23082514, -0.60289925, -0.08278882, -0.07026229, -0.0642745, 0.33155513, 0.21642329, 0.0071511427, 0.11785077, -0.10702212, 0.14092427, 0.06797148, 0.22488484, -0.17308572, -0.044105776, 0.06600867, 0.047993045, -0.08101413, -0.027845489, -0.1535952, -0.25328502, 0.07406969, 0.40965608, 0.2567304, -0.17453033, 0.08906511, 0.06725953, 0.2678485, 0.03687331
0.04585067, -0.49492818, 0.3862657, 0.00044436078, -0.16930416, 0.16466828, -0.44635177, -0.161259, 0.48111868, -0.043114707, 0.053592805, -0.12907542, -0.26851755, -0.43465158, 0.5399708, 0.40951696, -0.39690366, 0.206547, 0.20465244, 0.18054658, 0.073933356, 0.069282025, -0.35351756, 0.09907315, -0.13418427, 0.39502928, 0.71251374, 0.3303756, -0.040479533, -0.10583851, -0.4156006, 0.5949592, -0.082577005, -0.32536376, 0.34279585, 0.45374, -0.44386327, -0.613511, -0.48994476, 0.15253438, -0.28490537, -0.09027831, 0.023803059, -0.11567934, 0.34736153, -0.16242778, -0.18998198, -0.09633455, -0.034335565, -0.027178515, -0.07885633, -0.15518099, 0.3264538, 0.29161745, -0.049768697, -0.21325998, -0.42085853, 0.6874474, 0.06512204, -0.043018486, -0.5277819, 0.14709955, -0.28617, -0.26174778, 0.46208903, -0.17699718, 0.48720762, -0.35106853, 0.46030146, 0.37678504, 0.10953956, -0.2058684, 0.3406153, -0.29782233, -0.4948811, 0.1039541, -0.30807817, 0.20391504, 0.44038683, 0.27414602, 0.33790287, 0.49564725, -0.23364012, 0.61031467, 0.3993734, -0.021946218, -0.50804305, -0.3841042, 0.13572408, -0.06385736, -0.2178157, 0.20277116, -0.12882207, 0.11451493, 0.008894908, 0.19048318, -0.32614917, -0.061519317, -0.11314254, -0.07842594, -0.66807425, -0.075904585, -0.16338082, 0.014487675, 0.17684881, 0.034789972, 0.0016436884, 0.13215394, 0.04824027, 0.36403352, 0.07351035, 0.15961398, -0.18871056, 0.06763935, -0.102454595, 0.10353088, 0.3102485, 0.26252216, -0.17178439, -0.15493688, 0.11054929, 0.13662331, 0.26684687, -0.14252037, 0.12783897, 0.1611571, 0.2502779, 0.120560326
0.18720016, -0.22983041, 0.38639694, -0.033290435, -0.18270954, 0.06574079, -0.45648164, -0.14215577, 0.1695888, -0.36821753, -0.07842694, -0.12212768, -0.25070867, -0.3918545, 0.4144769, 0.04287171, -0.43156523, 0.3305768, 0.30075118, 0.19001801, -0.16294126, -0.23898323, 0.02286759, 0.029999282, -0.22615747, 0.19765371, 0.23267165, 0.29284912, -0.11930064, 0.15410516, -0.19486848, 0.6818195, -0.078761004, -0.2012955, 0.080029964, 0.29219738, -0.19477895, -0.45398903, -0.5066647, -0.07084011, -0.097929396, -0.27032134, 0.2550296, -0.32618195, 0.3117867, -0.29851192, -0.33376375, 0.1299121, 0.06899436, -0.2519845, 0.07439524, -0.23934112, 0.072338045, -0.006773915, 0.21105613, -0.119933344, -0.40360966, 0.4694649, -2.0166197e-05, -0.3137525, -0.27197865, 0.0005279275, -0.35711902, -0.21674815, 0.26524004, -0.35342908, 0.1696899, -0.22413367, 0.19147427, 0.24786456, 0.09627977, -0.6578061, 0.414543, -0.18938527, -0.39076728, 0.11817264, -0.25154135, 0.07923886, 0.1175517, 0.037071012, 0.068346776, 0.19088784, 0.09661292, 0.3109676, 0.38967687, 0.27265817, -0.4042587, -0.01638107, 0.025281528, -0.075105876, -0.28748333, 0.34597424, -0.0333569, 0.12115084, -0.1775504, 0.19272666, -0.3587743, -0.06033012, -0.09002028, -0.1442849, -0.64377224, 0.04544211, -0.18884607, 0.17675322, 0.47091302, 0.17719065, -0.25015226, -0.045722783, 0.059906542, 0.08176949, 0.10937252, -0.021645661, -0.30691168, 0.13302281, -0.36151323, 0.15782322, -0.030267097, -0.063422315, -0.24723126, 0.07024634, 0.21256132, 0.02733861, -0.0038900294, -0.20656353, 0.24256986, 0.021337574, 0.06715486, 0.101175934
0.1634147, -0.19545096, -0.044534173, -0.091488525, -0.37840623, 0.30050173, -0.5626327, -0.4538777, 0.2854186, -0.1301492, -0.22304328, 0.0814191, -0.22370027, -0.31570685, 0.12737799, -0.050809287, -0.099838704, 0.4831857, 0.2449481, -0.020505661, -0.22810215, -0.22183302, 0.080539264, -0.28127927, -0.26420045, 0.24390963, 0.39081708, 0.24630496, -0.36994523, 0.27548373, -0.27765453, 0.5784324, -0.21592715, -0.2975583, 0.15033177, 0.38226768, -0.16931629, -0.35244477, -0.32966995, 0.06928198, 0.15862516, -0.29837158, 0.17020568, -0.07092206, 0.47939533, -0.20450708, -0.20861265, -0.004644296, -0.011756452, -0.25312185, -0.0134417135, -0.05850328, 0.25840214, 0.2116959, -0.0516913, -0.21060494, -0.34577087, 0.5728748, 0.13375844, -0.15871005, -0.2880516, -0.004659709, -0.28428376, -0.14820813, 0.5392841, -0.08874955, 0.12987237, -0.14556062, 0.2442951, 0.38123846, 0.15467007, -0.47880897, 0.21040784, 0.011830299, -0.42160517, -0.019736206, -0.18463612, 0.14331467, 0.30019712, 0.2564538, 0.3403847, 0.36685672, -0.024114478, 0.28204006, 0.34027538, 0.022827946, -0.3803206, -0.2731496, -0.0060408884, -0.118583776, -0.24930267, 0.3596264, -0.14303215, 0.001651767, -0.23905163, 0.37888977, -0.179914, 0.09190952, 0.0039984067, -0.12635756, -0.36549556, -0.12342957, -0.20721895, 0.16478124, 0.47094995, 0.15706028, 0.044608746, -0.059547484, -0.05410885, 0.099630594, 0.14179726, 0.032583505, -0.18603206, 0.25272197, -0.30872056, 0.15223274, 0.13708305, -0.10884233, -0.24237762, 0.11674765, 0.012879815, 0.03630901, -0.029193638, -0.118712835, 0.09193427, -0.010511037, 0.015518407, -0.28855914
-0.014390191, -0.104028024, 0.19700055, 0.11835304, -0.43627077, 0.09377718, -0.41323003, -0.23946355, 0.24567287, -0.044837743, -0.05758447, 0.13967597, -0.11928579, -0.12959313, 0.20086771, 0.1787229, -0.16658212, 0.3925666, 0.4692607, 0.18990505, -0.16338922, 0.09729116, -0.20851885, -0.4213434, -0.26892424, 0.15463649, 0.47323304, -0.011360226, -0.30035788, 0.5063911, -0.14364229, 0.3779563, -0.4277102, -0.25156656, 0.08357494, 0.41305858, -0.1956543, -0.32398444, -0.18062402, 0.2000785, -0.03590452, -0.17447308, 0.17249697, 0.40195855, 0.05471522, -0.17756024, -0.4061398, -0.07620363, -0.22095014, -0.12763561, -0.30231577, -0.41723824, 0.12570041, 0.017486542, -0.19940662, 0.0042125382, -0.10459513, 0.32489255, 0.32879594, -0.31361634, -0.22106914, 0.07104096, -0.1672636, -0.26259723, 0.39216703, -0.1479282, 0.2095159, -0.5276813, 0.25702998, 0.21967821, 0.40035763, -0.40034923, 0.49854603, 0.14518115, -0.16919889, -0.21163936, -0.025759486, 0.110352725, 0.2501344, 0.30451456, 0.05428889, 0.2360977, -0.10803675, 0.31810716, 0.3933763, -0.0790366, -0.22317424, -0.06613142, -0.16606498, -0.2313472, -0.07235802, 0.41267923, -0.1906177, -0.49143445, -0.09977715, 0.3458878, -0.38717762, 0.51291037, -0.2977029, -0.19289787, -0.25945497, -0.24317841, -0.044688795, -0.09620698, 0.35003957, 0.22774057, -0.27165103, -0.11946993, -0.26147413, 0.2568436, 0.3483963, 0.13830124, -0.2263071, 0.21475229, -0.2883009, -0.21181491, 0.22548364, 0.36968747, -0.4131954, -0.10563233, -0.11465716, 0.5421788, 0.21415152, 0.1554307, 0.22929253, -0.21348308, 0.16049106, -0.2825388
-0.15024024, -0.16599932, 0.4440527, 0.22407608, -0.4035203, 0.11308222, -0.4066098, -0.21910757, 0.21905836, -0.08403276, -0.18594313, 0.4890872, -0.16151518, -0.22643277, 0.31492794, 0.23855865, 0.050814748, 0.2295002, 0.3105656, 0.10674836, -0.24029724, 0.099126905, -0.10690312, -0.26493746, -0.23757471, 0.25450987, 0.503292, 0.03758412, -0.29177698, 0.3392126, -0.17421484, 0.2060631, -0.4503075, -0.2123622, 0.1926976, 0.22089037, -0.21696162, -0.26577315, -0.11313091, 0.085048765, 0.17795381, -0.059272468, 0.25072914, 0.4575535, 0.08465895, -0.15543687, -0.291192, -0.10625103, -0.30073592, -0.04385493, -0.15705214, -0.3661337, 0.3923558, 0.05611537, -0.36726272, 0.016055215, -0.066280454, 0.38374484, 0.29044095, -0.08082655, -0.30406642, 0.49803156, -0.2128426, -0.07962142, 0.20554487, -0.45124885, 0.39877498, -0.30576402, 0.38281196, 0.19493002, 0.45513785, -0.33681548, 0.51549697, 0.052442227, -0.44893807, -0.18020011, -0.03594183, 0.3405619, 0.20011537, 0.29720348, 0.33166257, 0.23348866, -0.07793782, 0.16961828, 0.24156173, -0.059141472, -0.19147158, -0.27795368, -0.4267787, -0.010361404, -0.124624915, 0.19760579, -0.11174927, -0.3643014, -0.24823265, 0.16804075, -0.17773652, 0.44081998, -0.2961198, -0.34088248, -0.110464334, -0.14584483, -0.30441988, -0.28890595, 0.26128793, 0.4196785, -0.20782362, -0.045390308, -0.2704354, 0.22630751, 0.27894056, 0.30477896, -0.32912955, 0.43990436, -0.24152221, -0.17472745, 0.33710742, 0.23592329, -0.362355, -0.15360789, -0.34595433, 0.35306424, 0.40892217, -0.013748781, 0.289391, -0.30683285, 0.38958254, -0.25302267
-0.0152445, -0.12963533, 0.23334737, -0.026957158, -0.13135292, 0.0733639, -0.3419925, 0.0069694696, 0.18051843, 0.05638636, -0.15950422, 0.23002395, 0.099198446, -0.19615966, 0.381697, 0.38708153, -0.013005916, 0.031700358, 0.2270386, 0.24205904, 0.038460903, 0.0043035867, -0.07329737, -0.130053, 0.07570421, 0.29719082, 0.2097925, 0.040140186, -0.12783504, 0.13178784, -0.10147319, 0.22734678, -0.25729263, 0.06980145, 0.09387481, 0.026026595, -0.04478768, -0.024056945, -0.03781915, -0.14132203, 0.049944744, 0.027541887, 0.33623764, 0.20355682, -0.08495903, -0.10162985, -0.14733516, -0.2048977, -0.06271147, 0.0038138095, -0.20928164, -0.10762282, 0.12993856, 0.028606664, -0.22588995, 0.08934294, -0.029955367, 0.18409488, 0.064290494, 0.12068915, -0.20065118, 0.21811524, -0.14166354, -0.15669328, 0.15426339, -0.35150346, 0.38459307, -0.14757948, 0.24731006, 0.052876543, 0.35674828, -0.0016295852, 0.28331012, 0.20026504, -0.21427038, -0.006985505, -0.07457047, 0.30104864, 0.13079473, 0.24707545, 0.2770651, 0.18637145, -0.019607222, 0.09995995, 0.30248848, -0.086478315, -0.08511783, -0.3010292, -0.16491188, -0.11046887, -0.17065607, 0.069550775, -0.11492472, -0.21728423, -0.2719816, 0.14068659, -0.16580811, 0.3430963, -0.07623435, -0.053075712, 0.001462685, -0.13739489, -0.17019233, -0.20460795, 0.17183802, 0.25970444, -0.086915776, -0.0372907, -0.16706815, 0.16184774, 0.41159692, 0.30470526, -0.15776141, 0.4033203, -0.15039305, 0.082320295, 0.11899704, 0.09413109, -0.2122194, -0.22679415, -0.123601556, 0.37592682, 0.18976519, 0.043139245, 0.15996125, 0.07595582, 0.2640449, 0.047354005
0.05527295, 0.11909857, -0.048809268, 0.10421497, -0.045761216, 0.016271656, -0.016460348, -0.07854694, 0.09991961, 0.08055355, 0.09084576, -0.03664735, -0.14547253, 0.11631905, -0.09982507, 0.16939661, 0.12998222, 0.08206368, -0.055163726, -0.007996328, 0.020225935, -0.027063534, 0.13793057, -0.09100884, -0.05957319, -0.11899504, -0.011216164, -0.05561626, 0.041584283, 0.06996048, 0.07355957, -0.05676678, 0.0026445233, 0.11616879, -0.04590809, -0.110970594, 0.079594605, -0.04342308, -0.106740944, 0.076427974, 0.022489844, 0.11778775, 0.102112085, 0.1577308, -0.16232306, 0.1055139, -0.14751886, -0.027147813, -0.0686003, 0.02537311, 0.09219, 0.12189522, 0.04200833, -0.041555427, 0.121245414, 0.14107437, -0.045810927, 0.038606923, 0.02500607, -0.045585096, -0.1442435, 0.065805465, 0.020747483, -0.12356561, 0.16462076, -0.10437219, 0.1250818, -0.06920761, -0.021006044, 0.10973973, -0.08683781, 0.09207702, -0.046895515, 0.0093906205, 0.00024338881, -0.13141365, 0.0040093902, -0.044393107, -0.0020224417, 0.13433236, 0.0014544454, -0.088357374, 0.08897744, -0.072565906, 0.14730427, -0.10280643, 0.0813358, 0.06969903, -0.059337124, 0.0839694, -0.02061155, -0.11725566, 0.08925712, -0.022368142, 0.076704256, -0.024870768, -0.10506422, -0.1365862, 0.038407665, -0.107556015, 0.024086311, 0.09572319, -0.079067305, -0.071931414, -0.1268699, 0.0185916, 0.033824854, 0.107062176, 0.03026968, 0.070742354, -0.13211401, 0.03982344, 0.010745146, 0.07571071, 0.053221848, 0.08760443, 0.059536476, 0.0066600842, -0.06098031, -0.11450736, -0.07172118, 0.045364086, -0.05484619, 0.09802418, -0.030781368, -0.049685918, -0.024098882, 0.14262512
0.08676287, 0.13253544, 0.05585587, 0.067587726, -0.047365382, -0.06562084, -0.121195905, 0.14288442, -0.0849444, -0.1280736, -0.12423554, -0.030670391, 0.12402126, -0.089484476, -0.15388702, 0.100800484, 0.0665132, 0.00734742, 0.06271765, -0.08444079, 0.13733667, -0.16099699, 0.08105853, -0.14072989, 0.10985013, 0.097325325, -0.0044698734, -0.0004343919, -0.0033982971, 0.05939287, 0.061873462, 0.09599519, 0.06509433, 0.12876575, -0.13215427, 0.079359174, 0.13356733, 0.109119475, -0.043543853, -0.12107074, -0.020692164, -0.03913962, 0.011310055, 0.025103273, -0.056223065, 0.024692615, 0.13839723, -0.05152827, -0.11097403, -0.11161699, 0.12273836, -0.12241427, -0.090884104, -0.15626162, 0.01614393, 0.17069162, 0.02284382, 0.08046078, 0.15113084, 0.12197141, -0.070567, -0.10389842, -0.04936806, 0.16392802, -0.055583082, -0.019516714, -0.044854544, -0.04285604, 0.078180544, -0.15701476, 0.08424317, -0.14237829, 0.16341376, -0.102067925, -0.1422554, -0.05983683, 0.05138964, -0.13695554, -0.052269537, -0.15932722, 0.1086335, 0.08234868, 0.046033356, 0.09153647, -0.07345313, 0.095994554, 0.119034454, -0.06953682, 0.04478064, 0.14932516, -0.115883246, -0.12591824, -0.10780236, 0.076112516, -0.086243145, -0.006684959, 0.06499172, -0.06732711, 0.014350909, -0.048293933, -0.0054628104, 0.14503928, -0.0025186099, -0.04596395, -0.08985565, 0.01893109, -0.1358549, -0.12785342, 0.15313248, -0.00013253302, -0.023490988, 0.03217651, 0.06395314, 0.086391635, 0.033560555, 0.15155073, 0.08435834, 0.084753275, 0.052508995, -0.08064007, 0.14164752, 0.00052269665, 0.03451525, 0.06346926, 0.11754798, -0.06516885, -0.0790447, 0.021556726
0.083668046, -0.06694417, 0.09183764, -0.00905863, 0.050213825, -0.059499357, -0.16835538, -0.055031486, -0.09207675, 0.1878216, 0.0671126, -0.15509973, 0.13999097, 0.012987537, -0.016954213, -0.12125488, -0.024358371, 0.17172404, -0.098320566, -0.016794002, 0.13020761, -0.00777135, -0.048176497, -0.022678507, 0.08106064, -0.038114242, -0.033810657, 0.08195179, -0.18612154, 0.002283152, -0.09148488, 0.013140477, 0.03063827, 0.08544349, 0.118478924, 0.02701884, -0.11153893, 0.08310886, 0.10856973, 0.048830967, 0.016864372, 0.033081368, -0.16429336, 0.17391494, 0.035641093, -0.13681851, 0.0766737, -0.11769285, -0.12738189, -0.1162641, 0.0066569243, -0.008395961, 0.1561083, 0.019000433, 0.1615762, -0.05913777, -0.1222273, -0.1439769, 0.15442158, 0.10282978, -0.035099704, 0.111138664, -0.042506482, -0.059004188, 0.09297809, 0.15749882, 0.15465455, -0.0006641578, -0.0043965415, -0.06403175, 0.0575574, 0.15428023, 0.15321958, 0.09306155, 0.043098703, -0.045430012, 0.01997033, 0.2007714, 0.12665288, -0.05517227, -0.03151436, 0.086280376, 0.08794197, -0.014274414, 0.0049991193, -0.101233855, -0.032332297, 0.16726628, 0.038497865, 0.008798949, 0.12566023, 0.09413719, 0.046972666, -0.096009776, 0.03199912, 0.059703372, 0.07890276, -0.03664329, 0.10322791, -0.01069994, 0.006183549, -0.06649967, -0.019991586, 0.12824866, -0.07149599, 0.044986434, 0.07628246, 0.031076102, -0.10731152, -0.09954347, -0.037215408, 0.023863593, 0.035843957, 0.055557057, 0.096559584, 0.12896718, -0.10293018, -0.072812825, 0.1618806, -0.0827833, -0.055404242, -0.17399105, 0.025931645, 0.11068742, 0.19138321, 0.095644765, -0.06401804, 0.03670961
0.3771939, -0.10143487, 0.13153009, -0.17736697, -0.07392258, -0.011740954, -0.25934803, 0.16794679, 0.06875573, -0.10509726, 0.038974814, 0.09554848, -0.023830328, -0.08777367, 0.43087855, -0.102922596, 0.009174714, -0.116506696, -0.049126677, 0.26424566, 0.11850765, -0.013143092, 0.06650097, -0.057769734, 0.16388857, 0.33956674, 0.13171473, 0.20146832, 0.0223883, -0.07729421, -0.20623401, 0.18788442, -0.10365289, 0.0031250487, 0.1047924, 0.28398365, -0.08012383, 0.11511687, -0.064636216, 0.06637178, -0.2748862, -0.06413963, -0.12176551, 0.0056509636, -0.032170445, 0.05228537, 0.056185175, -0.22196548, -0.08922048, 0.19191967, -0.13412572, -0.23879553, 0.25659057, -0.024531415, -0.1368434, 0.018909037, 0.055714056, 0.21231507, 0.1791106, -0.013895216, -0.034514856, 0.23028196, -0.136702, 0.1161485, 0.26682523, -0.0758328, 0.4075304, -0.099642836, -0.053565606, 0.02616426, -0.14703707, 0.060574245, 0.38061517, -0.25356638, 0.032418054, 0.14142534, -0.14148694, 0.3259809, 0.26579353, 0.26715547, 0.084678635, 0.2791211, 0.17810823, -0.031083189, 0.17186372, -0.15667427, -0.17488106, -0.04819129, -0.03974389, 0.20164229, 0.09084189, 0.21854924, -0.046799228, 0.048027027, 0.27176893, 0.12131682, 0.18311918, -0.029074833, 0.039166573, 0.03606593, -0.19594759, 0.092653565, -0.30890164, 0.012297476, -0.0047000227, -0.09809026, 0.109364904, -0.043050084, 0.051458783, 0.09656154, -0.18077068, -0.10437539, 0.0820755, -0.13858503, -0.02832597, 0.16241468, 0.1373723, 0.13193789, -0.1272592, 0.025074452, 0.2917624, 0.106154114, -0.11679472, -0.20520562, -0.04093997, 0.226267, 0.059780154, 0.24108765
0.18361539, -0.23356327, 0.13971308, 0.18698473, -0.14217134, 0.24700953, -0.05128677, 0.09526727, 0.16278064, -0.09441057, -0.04266409, 0.12056496, 0.0336594, -0.27921975, 0.14919454, 0.056298863, -0.34602493, -0.0898821, -0.08375978, 0.14568311, 0.14361203, -0.16218278, -0.015041244, 0.110900834, 0.04391677, 0.13961752, 0.23544715, 0.057295293, 0.0674747, -0.26304498, -0.049832016, 0.08615054, -0.21350779, -0.13615654, 0.33836746, 0.089329265, -0.014238428, -0.20422485, -0.17049645, 0.079612754, -0.162964, -0.16893181, -0.096386336, 0.33927098, 0.0282812, -0.07280082, -0.15688294, -0.10972695, -0.17140736, 0.057236154, -0.04957951, 0.043881845, 0.15999296, 0.039977785, -0.18219535, -0.050689127, -0.030478198, 0.020639539, 0.17953673, -0.086326815, -0.37503463, 0.058631852, -0.1342236, -0.004383452, 0.1564281, -0.1757311, 0.3730952, -0.3909848, 0.2898477, 0.39254987, -0.37560022, -0.04073396, 0.35532752, -0.41892523, 0.03242283, 0.069480896, -0.3299036, 0.12630668, 0.18021642, 0.079837605, 0.22378735, 0.2850418, 0.18433009, -0.17878674, 0.1456799, -0.18336795, -0.41417262, 0.0070360885, -0.2622688, 0.20754309, -0.08258769, 0.04724684, 0.043090265, 0.059775874, 0.13307798, 0.14541246, -0.08785652, -0.3432432, -0.05962206, -0.029801516, -0.30040017, -0.06873141, -0.16574006, -0.064871624, 0.012659486, -0.2983331, 0.12113532, 0.13481246, -0.07482822, 0.0068580164, -0.07751396, 0.047775213, -0.13249077, -0.1333294, -0.064842775, 0.23660685, 0.0044023655, 0.21625803, -0.024319846, -0.0028280003, 0.0050107175, 0.13065588, 0.001997758, -0.20257297, 0.22446586, 0.1274581, 0.25349593, 0.24706902
0.1723193, -0.021199703, 0.062725425, -0.11246892, -0.06251316, 0.20019567, -0.11833059, 0.44140676, 0.18945834, 0.04140025, 0.11216416, -0.30776635, -0.13581096, -0.4930499, 0.31353223, 0.18448538, -0.4939968, 0.07084788, -0.023671433, 0.2224478, 0.20063354, -0.16805692, 0.016476106, -0.040254563, 0.39100116, 0.15838507, 0.14677452, -0.10399236, 0.16363426, -0.40945917, -0.20622571, 0.21118954, -0.012533416, -0.016378578, 0.047695145, 0.13798921, -0.024438268, -0.049410574, -0.29759163, 0.159859, -0.13484931, -0.34238765, 0.30882832, -0.3692096, 0.20585556, -0.43370888, -0.05764113, 0.092796676, -0.048394643, 0.09910002, 0.09113429, -0.22921464, 0.30292752, 0.14718664, 0.022928381, -0.17148964, -0.28815114, 0.29050058, 0.03378021, -0.108759634, -0.084481195, 0.031884886, -0.11779289, -0.052238967, 0.19303071, 0.13395832, 0.30439553, -0.37084007, 0.30454078, 0.3553271, -0.4081151, 0.025995838, 0.0132242665, -0.4618728, -0.08487325, -0.08451531, -0.060964357, -0.021488579, 0.16000953, 0.2522157, 0.28077015, 0.09945032, -0.0006984976, 0.21965703, -0.080540314, -0.044665664, -0.2687881, 0.038185403, -0.11079077, 0.074900046, 0.28125533, -0.008756822, 0.11948358, 0.04160149, 0.16404283, -0.044809967, 0.02754878, -0.15190111, -0.05320314, 0.050912768, -0.2808735, -0.09895369, -0.1490058, 0.18282491, -0.15944098, -0.3368562, 0.4444545, 0.24056728, 0.07633189, 0.24989407, -0.13895775, -0.09156361, 0.11951276, -0.044261355, -0.04806124, 0.23029295, 0.16110456, 0.16749355, -0.20112173, 0.12884726, 0.015652053, 0.28479365, 0.07165086, -0.31327683, -0.1520435, -0.007927948, 0.28173706, 0.44695508
0.23213054, -0.20037304, 0.13460174, 0.0032741053, 0.0100153, 0.10898393, -0.02652994, 0.22309956, 0.14923932, 0.14815934, -0.09297603, -0.71314174, 0.07460438, -0.3954836, -0.041822214, 0.29773092, -0.59234345, 0.0774895, 0.31468278, 0.02701679, -0.018177075, 0.0550965, -0.18714727, 0.12765108, 0.2878698, 0.024630236, 0.047867283, 0.15666854, 0.1164958, -0.079112805, -0.14297035, 0.14344503, 0.07260803, -0.07498869, 0.019907407, 0.07977362, 0.07987449, -0.07739646, -0.5764778, 0.074818194, -0.12479846, -0.31138206, 0.27334192, -0.7614628, -0.02761047, -0.42665952, -0.1022044, 0.004647332, 0.109300174, 0.16320395, 0.022166189, -0.044955876, 0.22375171, 0.0956266, -0.06892087, -0.03717644, -0.27664512, 0.13630083, 0.058853015, 0.044526335, 0.066774, -0.13823214, -0.16740416, 0.012358499, 0.15103222, 0.23045158, 0.09604491, 0.096430086, 0.21764058, 0.14358824, -0.3961355, 0.1003333, 0.01344241, -0.123728424, -0.0048455764, 0.10129029, -0.07920996, 0.043734774, 0.12345673, 0.16246998, 0.41922772, 0.30322957, 0.180115, 0.1611241, -0.029424671, 0.038973466, -0.37174094, 0.15582025, 0.10352098, -0.073407724, 0.3929365, -0.027162002, 0.044295028, 0.10653566, 0.28161433, 0.04109689, 0.0043494906, -0.27466395, 0.07911475, -0.05684876, -0.35878995, 0.032827154, -0.10355435, 0.022535073, -0.016584322, -0.17152093, 0.36473355, 0.15735981, -0.11901909, 0.01915742, -0.09303372, 0.051718492, 0.07480519, -0.13787383, 0.06263754, 0.2932991, 0.10086057, 0.17878413, -0.13690226, -0.08922941, 0.053621393, 0.049372293, 0.018654803, -0.29937896, -0.10115546, 0.011107298, 0.1620566, 0.27857786
0.06373074, 0.011157111, 0.011007393, 0.006580989, 0.14813374, 0.3189097, -0.064082004, 0.018074065, 0.11196892, 0.0026884929, 0.1485272, -0.1318653, -0.09167557, -0.35336757, -0.0866316, -0.050397348, -0.27516422, 0.103744216, 0.06110607, 0.008375798, 0.09908904, -0.01857635, 0.042663056, 0.12962353, 0.037983265, 0.10479974, 0.1473946, -0.078656696, 0.19487849, 0.13073988, 0.024709513, 0.10780151, 0.10182938, -0.13162968, 0.041406058, -0.37857085, 0.18520612, -0.20011681, -0.3966113, 0.19968379, -0.19741504, -0.020807734, 0.36151952, -0.363228, -0.19041517, -0.5270247, -0.18686564, 0.28744072, 0.1896799, -0.01339028, 0.10065332, -0.059235513, 0.15467305, 0.22951415, 0.35371068, 0.10236642, -0.49982914, -0.036005855, 0.1154875, -0.20595472, -0.036149725, 0.00022413558, -0.057421103, -0.08512628, 0.15103203, -0.02721379, 0.06983202, 0.23560745, 0.29986185, 0.0937583, 0.022438418, 0.061948348, -0.059706006, -0.081136815, 0.14454213, 0.033835463, -0.14129384, -0.14377588, 0.10091697, 0.11618666, 0.29778042, -0.2030978, 0.09817088, 0.14401461, -0.02815644, -0.030685203, -0.38817462, 0.11551929, -0.018494485, 0.07057004, -0.27064288, 0.26131544, -0.010150118, 0.035962004, 0.086283036, 0.046782542, 0.17534657, -0.48695332, 0.011825782, -0.1283391, -0.25285676, 0.05936089, -0.022057928, 0.059985925, 0.15833704, 0.040944356, 0.33996198, -0.04386131, -0.08652886, -0.023544997, 0.09083383, -0.08669403, 0.00019161872, -0.0045524943, 0.03938372, 0.3579962, 0.09249113, 0.14900503, 0.052534238, -0.04713557, 0.38749716, 0.12692733, -0.084475614, -0.14549159, -0.036009867, 0.083044894, 0.10092033, 0.2043222
-0.06742655, 0.10448259, -0.122260734, -0.16510813, 0.075851426, 0.10645498, -0.17343372, -0.104864396, 0.20643598, -0.2176974, 0.014651197, 0.24719256, -0.1389605, -0.19879362, -0.050122105, 0.09893779, -0.08268492, 0.20565939, 0.02622147, -0.0074509857, -0.10581709, 0.023034671, 0.19927448, -0.014631036, -0.048687465, 0.0017859155, -0.039614998, 0.029778002, 0.079927415, -0.039601065, 0.0676629, 0.0748442, -0.14158826, -0.02099979, 0.037120588, -0.15759347, 0.003961467, 0.01546543, -0.09249802, 0.05867584, 0.12527244, 0.042984728, 0.45788452, -0.15633675, -0.2322572, -0.2595598, -0.276402, 0.08548705, 0.008479417, -0.13921161, 0.1907915, -0.11846067, 0.06957149, 0.32111377, 0.30608156, 0.0481374, -0.21848968, 0.12883928, 0.09843887, -0.25807434, -0.09589325, -0.031451214, 0.12675689, 0.20379771, 0.1951918, 0.028999716, 0.22107176, 0.03085139, 0.22290455, 0.28129777, 0.06300043, -0.4475913, -0.12183291, 0.02271033, 0.06625021, -0.03831944, -0.04505222, -0.07725239, 0.07702274, 0.18452267, 0.010242126, -0.05795419, -0.017964786, -0.028846348, 0.009543374, -0.09929583, -0.25755054, 0.06484247, -0.029290967, 0.045603327, -0.161946, 0.097152404, 0.06284352, -0.068412215, 0.02508054, -0.21468326, 0.08339086, -0.047059104, 0.006457213, -0.23863204, -0.2132871, -0.1395642, -0.15495338, 0.067606404, 0.17578782, 0.21808228, 0.37266853, 0.034289133, -0.09747551, 0.27623746, 0.15389667, -0.15139985, -0.037152413, 0.21539876, -0.0033509354, 0.12022269, 0.056073613, 0.12898397, 0.02422831, 0.0119087165, 0.35412124, 0.12866707, 0.16241659, -0.019386174, 0.03749983, -0.08352639, -0.0646824, 0.035092477
-0.103883676, 0.21296586, -0.070661575, 0.25168455, -0.01602715, 0.19483371, -0.1904515, -0.038037043, 0.02469743, -0.10178602, -0.031188762, 0.12532128, -0.120001085, -0.12190172, 0.07030565, 0.029437356, -0.07216396, 0.00035623045, 0.1589733, 0.21581426, 0.0067595597, -0.00081538956, 0.17714806, -0.21823817, -0.21273905, -0.012443653, 0.10990774, 0.09398721, 0.1010912, -0.05319831, -0.00028357966, 0.03946849, -0.18002193, -0.074989125, 0.09093125, -0.034548406, -0.13644087, -0.099063985, -0.08928504, 0.03685077, 0.17746708, -0.03869351, 0.14676526, 0.12232685, -0.2898484, -0.051775627, -0.38026324, 0.16517088, 0.13753709, -0.07674577, 0.1870704, -0.20723434, 0.080543585, 0.01615304, 0.06470042, 0.055828467, 0.037746575, 0.06954752, 0.17478748, -0.31988868, 0.0148106, 0.1744772, -0.015474517, -0.16620453, 0.26606995, 0.10305697, 0.17401776, -0.01649351, 0.23586659, 0.25101474, 0.12273146, -0.42494503, -0.07427156, 0.082636714, 0.04839752, -0.049253087, 0.0013109397, -0.1909881, 0.087438695, 0.052126784, -0.094111346, -0.062785536, 0.029458389, -0.0366737, 0.12001748, 0.027522199, -0.23608634, -0.030809293, -0.20696451, -0.10421819, 0.04468647, -0.3098521, -0.023526182, -0.39653736, -0.22381008, -0.19136074, 0.09046845, -0.057918746, -0.055804167, -0.30552223, 0.027833933, -0.23604736, -0.08867338, 0.07908248, -0.13176006, 0.08597244, 0.2530073, 0.05371285, -0.21497239, 0.18294811, 0.1306484, -0.008758447, 0.018011367, 0.18065277, 0.07195922, 0.08608645, 0.18684344, 0.16480504, 0.06958194, 0.23652612, 0.19593835, 0.1925632, 0.14760375, 0.051435508, 0.07340484, -0.040292468, 0.038069014, -0.2615256
-0.38287905, -0.017795822, 0.18115576, 0.1401273, 0.11185018, 0.105676554, -0.1228499, -0.13144524, -0.032492276, -0.24242339, 0.18365331, 0.03279817, -0.2911876, -0.04284797, 0.040078245, 0.031415068, 0.03784898, 0.113924935, 0.06614746, 0.13861747, -0.0504268, -0.1384349, 0.1848739, -0.13982466, -0.1835195, 0.14237995, -0.025403753, 0.1567109, 0.064195, -0.33384797, 0.0054151346, -0.07076075, -0.25182036, -0.0982635, -0.018274896, -0.15913796, -0.11260544, -0.056989983, -0.021574657, 0.099931754, 0.07816922, 0.10786267, 0.41731128, 0.16298732, -0.2818599, -0.11716463, -0.32108864, 0.07095132, -0.06981813, -0.23002137, 0.050478525, -0.2609256, -0.017199093, 0.040144462, -0.2056689, 0.071353845, 0.17398989, -0.0689738, -0.049446363, -0.10655857, -0.04756159, 0.18373773, -0.08442676, -0.029500876, -0.020786606, -0.021208037, 0.18397714, 0.0025640812, 0.53037417, 0.22328578, 0.14514703, -0.26033378, -0.014683082, 0.057862494, -0.07965755, -0.095958315, 0.013392165, 0.11981738, 0.16974075, 0.25423434, -0.038767204, -0.010927776, 0.0129128955, 0.22995164, -0.0798209, 0.21238779, -0.0630664, 0.031939253, -0.13569814, -0.008563761, 0.12139436, -0.3857772, -0.13953984, -0.28576604, -0.16212963, -0.094304755, -0.015660247, -0.018553909, -0.07337307, -0.25188926, 0.105510086, 0.053988717, 0.24293303, -0.053659655, -0.22024058, 0.18137051, -0.1283553, 0.03172785, -0.33114076, -0.10190086, -0.050044183, 0.118309855, -0.060215406, 0.20465226, 0.10294112, -0.056048293, 0.0066223517, 0.011552798, -0.01635166, 0.048816912, -0.057299163, 0.043460757, 0.0027696553, 0.2002324, 0.22802082, -0.0870446, 0.05911366, -0.21730892
-0.30308574, 0.14928353, 0.21030314, 0.30976918, 0.1824716, -0.105483085, 0.04316873, 0.03973551, -0.048336845, -0.0010021462, 0.21098107, 0.1258242, -0.32923058, 0.022743141, -0.13173263, -0.13901111, 0.03767111, 0.17383057, 0.41774616, 0.37363893, -0.061375983, 0.21326593, 0.1924622, -0.20171015, -0.11859669, -0.03425965, 0.059792534, 0.061640263, -0.07848286, -0.029133756, 0.25880423, 0.08790994, -0.20560238, -0.033107545, -0.04124313, -0.40435523, 0.08289375, 0.08663185, 0.11273546, -0.006414583, 0.20548278, 0.109601274, 0.47223157, 0.18225208, -0.27990553, 0.08918585, -0.019108752, 0.15553923, -0.2800241, -0.19169447, -0.2400932, -0.27050766, -0.17039669, -0.14270103, -0.20870842, -0.046504997, 0.16499275, 0.07803279, -0.08745402, -0.12748192, -0.026979323, 0.14647143, 0.16905494, 0.28300557, -0.14426437, 0.08973587, 0.07000468, 0.11245394, 0.3539915, 0.08523684, 0.13072781, 0.013191892, 0.16217208, 0.017488211, -0.09264644, 0.07716802, -0.09310228, -0.05047875, 0.35183105, 0.039479926, 0.2213205, -0.29816884, -0.058084637, 0.3595865, -0.0057090945, -0.15145838, 0.10768156, 0.100940354, -0.23901239, 0.020340983, 0.070672125, -0.17736022, -0.043242905, -0.27387896, -0.18090437, 0.068551525, -0.29296252, 0.13557854, -0.13822979, -0.07631226, 0.1773022, 0.09732294, 0.13208064, -0.34868193, -0.17324555, 0.20810974, -0.0010387459, 0.36766583, -0.16691878, 0.15361392, 0.06975054, 0.1415951, -0.23047361, 0.4444207, 0.14544722, -0.046673324, 0.17209627, 0.11357395, 0.041218102, -0.12466236, -0.300153, 0.24044795, -0.044713255, 0.22470462, 0.4405276, -0.06583466, -0.006503659, -0.32559347
-0.0414241, 0.28513315, -0.10807643, -0.030389844, 0.17988361, 0.08983496, 0.26028302, 0.11726812, -0.036995806, 0.04289858, 0.32208392, -0.07024202, -0.116948776, 0.107472725, -0.039156273, 0.059462804, -0.025116874, -0.0046413606, 0.12140036, 0.10725945, 0.02048519, 0.20258255, 0.03904033, -0.12861484, 0.08351295, -0.06769262, -0.010407137, 0.14134203, 0.17378114, -0.122755334, -0.060508464, 0.21954101, -0.11354883, 0.2439551, -0.19315867, 0.14059849, -0.13271326, 0.058469646, 0.11897731, 0.17660074, 0.08703475, -0.019773822, 0.1357264, 0.017803958, -0.15768176, -0.1028627, -0.01392544, 0.012428585, -0.0077247676, -0.24271412, -0.06604296, 0.0066314097, -0.14381059, -0.055712454, 0.024493564, 0.102892786, 0.11088353, 0.08904723, -0.06031091, 0.085448764, 0.18876036, -0.0026674215, 0.24251942, 0.27504778, 0.058573432, 0.18794087, 0.024523407, -0.09911185, 0.11358253, 0.007993238, -0.05787355, -0.0385403, -0.05271767, -0.056347392, 0.16314013, 0.10607351, 0.1828898, -0.03530159, 0.10555349, -0.024423575, 0.14400211, -0.09748998, 0.010709854, -0.086494036, 0.036656912, -0.1815024, 0.19331975, -0.013721021, 0.011503976, 0.11065181, -0.09835235, -0.035196193, -0.20248018, 0.04451805, -0.02217259, -0.030743882, -0.047775377, 0.14280012, -0.02127928, -0.051203977, -0.020052185, 0.0067759682, 0.0892296, 0.053771354, -0.038473234, 0.10560048, 0.025160326, 0.1417504, -0.12557717, -0.067176394, 0.050268065, -0.14496177, 0.24244843, 0.17534985, 0.1149496, 0.07479229, 0.091656, -0.04530077, -0.018076345, 0.021653242, -0.25834945, 0.26033822, -0.18649468, 0.13894412, 0.13071705, -0.15209714, -0.18364957, 0.007527152
0.086360216, 0.014779578, -0.11983572, 0.05086295, -0.11583727, -0.07067292, -0.056644823, -0.114343375, 0.045259353, -0.037689537, -0.13854787, -0.13643992, -0.12245413, -0.0045780237, -0.023843538, 0.103238784, -0.031842276, 0.017500542, -0.06876237, 0.05104497, 0.051905073, 0.018814668, -0.027616762, 0.019988216, 0.03547166, 0.086081855, -0.0891963, -0.03102789, 0.06412706, 0.0853376, -0.020439873, -0.17393948, 0.008966249, 0.07764537, 0.07725378, 0.14486504, -0.1097116, 0.21259819, 0.10943734, 0.14999884, 0.040776998, -0.07861324, 0.034081995, -0.13760774, 0.05385184, -0.001092212, 0.10219966, -0.086566165, -0.14445125, -0.01051246, 0.07664679, 0.078268684, 0.012670195, 0.09629539, -0.17858864, 0.16009854, 0.1084871, 0.038056288, 0.015349149, -0.080658466, 0.059984386, -0.12517263, 0.07202923, -0.048136175, -0.101450264, 0.0344654, 0.00021692668, -0.060002346, 0.1301039, -0.04544915, 0.07976413, 0.069431044, 0.13770974, -0.022288712, 0.07520389, 0.08025131, -0.010630185, 0.1591895, -0.104988, -0.050931714, -0.09956433, 0.1318292, -0.08908839, 0.13093607, 0.027351644, 0.041356504, 0.024897294, 0.19651061, -0.14082703, 0.1454332, -0.0756429, -0.05266264, 0.0823417, 0.032568246, 0.14886336, -0.096343614, -0.094577834, 0.13758639, 0.026636086, -0.049566876, 0.04280409, -0.026254088, 0.11428608, -0.0010066167, -0.1429354, 0.08495975, 0.01173404, -0.0013023557, -0.05898745, 0.14115587, -0.06859476, -0.077459104, -0.09956841, 0.020358156, 0.0601926, 0.014461194, -0.034148302, 0.06443578, 0.04536663, -0.099431776, -0.0145980045, -0.0116308285, 0.022951912, 0.116642766, 0.15581203, -0.14846241, -0.018487696, -0.045430645
0.09153082, -0.28594416, 0.005788519, -0.04015806, -0.06574545, -0.014751348, -0.26589802, 0.14423339, 0.12451472, 0.09619756, -0.045444965, 0.08819001, 0.020884609, 0.04677432, 0.08937078, -0.14080326, -0.04159458, -0.024880636, -0.052284624, 0.2208769, 0.30202836, -0.15521674, -0.040818363, -0.25697324, 0.15943775, 0.35965487, 0.005419271, 0.047758415, -0.08467016, -0.025289826, 0.33400708, -0.24439019, -0.095074706, -0.1154521, -0.010531944, 0.2839119, -0.24370709, 0.2922558, 0.2118828, 0.063825935, -0.18623896, 0.14836596, 0.08582287, -0.012407631, -0.046666935, -0.07416711, -0.121522956, -0.38399845, -0.30504572, 0.18845497, -0.04798518, 0.12368749, 0.09833393, -0.16027798, 0.10598812, -0.19800283, -0.051829845, -0.029940655, 0.087282844, -0.023046643, -0.036257334, 0.095541365, 0.0029617737, 0.0021954412, 0.23070376, -0.015593541, 0.2909167, -0.018938754, -0.19881493, 0.13540721, -0.061305456, 0.1730392, 0.43698803, -0.19295906, -0.016146109, 0.046311542, 0.03765303, -0.012310978, 0.34065232, 0.08108877, 0.118250936, 0.12506738, 0.09406581, -0.11940387, -0.11666267, -0.1349587, 0.0028304912, 0.10463231, -0.10267353, 0.25828665, -0.110466845, 0.021066502, 0.009987576, -0.11791139, 0.13640101, 0.03553252, -0.003964499, 0.11251588, -0.21175577, -0.0905325, 0.21413717, -0.060502913, -0.1740893, 0.3032871, -0.23784713, -0.30208996, 0.08134859, 0.2424485, -0.21000119, -0.3969083, -0.10794091, 0.019780468, -0.0939617, -0.1775146, -0.30776006, -0.02323255, -0.060447544, 0.14745763, 0.033373944, 0.17774932, 0.036432758, -0.26658374, -0.1106228, -0.04896469, 0.16135406, 0.10193036, 0.18177153, 0.19455029
-0.18758184, -0.05104388, -0.12438631, 0.20234165, 0.037287313, -0.21343169, -0.08186719, 0.1539234, 0.003658319, -0.26856193, -0.29216066, 0.24487047, -0.056030627, -0.013164587, 0.12826066, -0.30496478, -0.25694832, -0.029895121, -0.07697138, 0.08213938, 0.27476436, -0.33028954, 0.11540108, -0.4118176, 0.17205401, 0.28433007, 0.17589077, 0.26966038, 0.037313722, -0.08023173, 0.29590598, -0.06470406, 0.109721124, 0.06310558, -0.10652518, 0.24835756, -0.07579747, 0.05065055, 0.13065569, 0.060506422, -0.06329415, 0.07741817, -0.15215637, 0.26510593, 0.091798656, 0.0034506542, 0.13750538, 0.04788633, -0.17933065, -0.06834036, 0.21862715, -0.06688974, -0.16641325, -0.19694284, 0.12073158, -0.11824673, 0.13643773, -0.0045884103, -0.03238044, 0.12543988, -0.13888036, 0.015610488, -0.01098668, -0.010746605, 0.062532715, 0.13974127, 0.13111737, -0.3852995, -0.15739569, 0.2075317, -0.3316845, -0.010579296, 0.24871567, -0.41206753, -0.2030218, -0.13903977, -0.024558125, 0.15014036, 0.2173097, 0.066298746, 0.14137946, 0.06600486, 0.26382113, 0.13166177, -0.07865665, -0.20388259, 0.009980795, 0.117898025, -0.07681937, 0.25409666, -0.115952, 0.013448615, -0.023632208, -0.013245376, -0.13051473, -0.006541852, -0.057636555, -0.054710858, -0.052285597, -0.31531903, 0.062096864, 0.006787192, -0.07430435, 0.100961834, -0.2154379, -0.23667826, 0.121486105, 0.17751218, -0.13459113, -0.2831735, -0.1657096, 0.1448935, 0.12361553, -0.20590857, -0.090454146, 0.14496154, 0.15138552, -0.14677957, -0.04225087, -0.14499554, 0.00292994, 0.020193439, -0.075394064, -0.07292454, 0.18254368, 0.27274212, -0.07036485, 0.13242641
-0.07628419, -0.101784855, -0.18987069, 0.17998771, 0.063406155, -0.21393298, 0.106950946, 0.12653431, 0.17174795, 0.00687598, 0.060395148, 0.22187398, 0.030105514, -0.15493818, 0.19276989, -0.2130795, -0.039374057, 0.01098595, -0.20746018, 0.26131463, 0.1862494, -0.079772696, 0.1793447, -0.4688349, 0.25952277, 0.21385579, 0.28916803, 0.14841671, 0.18270771, -0.508722, 0.39049307, -0.095416196, 0.0024559463, 0.04799089, -0.091735594, 0.1756953, 0.14231512, 0.06966887, 0.10551123, 0.07188469, -0.097660944, -0.12274938, -0.1315727, 0.14194508, 0.25172028, -0.06435877, 0.10216044, -0.09741238, -0.15198916, -0.06719859, -0.04675056, -0.41268077, -0.00564792, -0.22729136, -0.15746193, -0.29172045, 0.21456409, 0.029359533, -0.16594571, 0.18581332, -0.038879976, -0.032855168, -0.04368969, 0.12522633, 0.26413396, -0.076335095, 0.106370114, -0.20780294, -0.004622195, 0.055113442, -0.6649025, 0.13615336, -0.08407678, -0.31521368, -0.15038267, 0.0024489723, 0.02356923, -0.08187653, -0.10193109, 0.07827886, 0.10799334, 0.14407685, 0.0368726, 0.05550029, 0.03681184, -0.25490105, 0.002462239, 0.16666763, -0.2713538, 0.091487885, -0.13344102, -0.15161471, -0.0044277087, -0.34043255, -0.27544308, 0.06652133, 0.114929825, -0.087445065, -0.14721477, 0.15026344, 0.13527447, 0.07134763, -0.000827686, 0.17940435, -0.26415867, -0.31425706, 0.03882041, 0.12983735, -0.08764031, 0.029867062, -0.08044759, 0.07791329, 0.0014887475, -0.42435873, 0.05970001, -0.07638536, -0.0021161486, -0.16734482, -0.008445775, -0.15639636, -0.12413327, 0.34773934, 0.007912979, -0.13027565, 0.024916138, 0.08827671, 0.026485672, 0.22230798
-0.008134971, 0.15582494, 0.13320382, -0.19835335, -0.04002907, -0.09214402, 0.23255466, 0.15352173, 0.09245147, 0.14260663, 0.14474048, -0.5797355, 0.023319291, -0.07423958, 0.12555245, -0.004941432, 0.009998266, 0.1460567, 0.009444572, 0.11976857, 0.27044243, 0.14242417, 0.22630475, -0.26705456, 0.2660211, 0.07737569, 0.047827367, 0.03774019, 0.24534471, -0.48846492, -0.056851126, -0.19358446, 0.086007535, 0.0058270786, -0.03292406, 0.22175291, 0.10391283, 0.17590202, 0.010340298, 0.098306224, 0.106268585, -0.111635946, -0.12894556, -0.30809242, 0.13010354, -0.01877263, 0.12472318, 0.034524098, 0.072920665, 0.1359485, 0.040771443, -0.26960567, -0.2569094, -0.115876175, -0.14778894, -0.24425966, -0.076487176, -0.071377, -0.08555325, 0.0034754197, 0.05513858, 0.093350105, -0.021528687, 0.00736228, 0.13591173, -0.06166906, -0.10749133, -0.19463685, -0.061927132, 0.03728732, -0.40338635, -0.013524766, 0.14769863, -0.1518929, -0.000570698, 0.052716125, 0.04504351, 0.08558935, -0.12618916, 0.08231097, 0.1742501, 0.083500415, 0.079764366, 0.1575375, -0.005481008, 0.15905371, 0.006975054, 0.06706692, -0.40767103, 0.11651342, -0.019488484, -0.14015895, -0.08494375, -0.33628574, -0.25578037, 0.031115305, -0.0830519, -0.13974321, 0.015463062, 0.109842, -0.025748245, -0.07008827, -0.0047847778, 0.060993925, -0.05192423, -0.40499055, 0.16760366, 0.22449058, -0.14099635, 0.042280838, -0.08639566, -0.029409595, 0.08452251, -0.09329112, -0.023121955, -0.10206667, 0.045802258, -0.2620249, 0.03107826, -0.14471586, -0.07562919, 0.14540358, -0.11850733, -0.018769877, 0.17166926, 0.17802046, -0.025891744, 0.35344857
-0.0052230866, 0.080522396, 0.23074555, -0.117191054, 0.017325625, -0.090517595, 0.03554737, 0.14140414, 0.023540845, 0.13728635, 0.019703409, -0.7359298, -0.04868176, -0.16253369, 0.15566307, 0.08762196, 0.09569891, 0.3617611, 0.3806171, 0.10149749, 0.25078437, 0.008695276, -0.21247786, -0.21643887, 0.1268004, -0.09605298, -0.026599757, 0.13000958, 0.10632336, -0.08364876, -0.17807014, -0.15740284, 0.18593922, 0.13974373, 0.015355462, 0.20114288, 0.36367607, 0.008969859, 0.018802026, 0.008298424, 0.060028385, -0.030238211, -0.14069895, -1.0534863, 0.2116911, -0.02704163, -0.2158924, 0.19256537, 0.12842782, 0.16692586, -0.13017784, -0.43484023, -0.27313995, 3.5435427e-05, -0.49934128, -0.09943231, -0.15695491, -0.059225675, 0.08039048, -0.05297128, 0.09172035, 0.024714582, 0.19578372, -0.28149828, 0.10005866, 0.12707734, -0.14671871, 0.0022792956, 0.19125612, 0.014734393, 0.041286264, -0.128498, -0.098732635, -0.17173357, 0.2144078, 0.2607794, -0.08581981, -0.064066425, 0.014008778, 0.07521645, -0.083782725, -0.12431268, 0.11373982, 0.27815506, 0.03832846, 0.21955761, 0.119278416, 0.11821372, -0.57944524, 0.05200331, 0.21657097, -0.01619601, 0.0019571795, -0.28330076, -0.3977149, -0.08733322, 0.0023422372, -0.1429868, 0.033948377, 0.09325223, -0.040274933, 0.14674321, 0.09568, 0.110472135, 0.02207929, -0.2437626, 0.22018848, -0.23434824, -0.12320716, 0.08668817, 0.033460513, -0.105513684, 0.16174994, 0.004384908, 0.078163944, -0.2775272, 0.126494, -0.20014165, -0.27292556, -0.23597173, -0.015837966, -0.64550066, -0.05178396, -0.17092875, -0.047822583, 0.082523055, -0.080895275, 0.3329877
-0.20470583, -0.14322817, -0.36893278, -0.024690935, 0.20558265, 0.20899865, 0.00885584, 0.26057106, 0.04864133, -0.14614539, 0.16930017, 0.1929841, 0.08668288, -0.074225806, 0.06328604, 0.21791148, 0.25949222, 0.15006062, -0.09624408, -0.13469416, 0.30756757, 0.21705104, -0.05008048, 0.38301906, 0.29084212, -0.034511987, -0.25146744, 0.20736954, 0.0028547915, 0.12770881, -0.20374699, 0.021266153, -0.008727169, 0.08895204, 0.09039146, 0.1065828, 0.34235603, -0.022400817, -0.010062691, 0.14157118, 0.27013534, -0.0065327333, 0.31575403, -0.01794079, 0.20871939, -0.115885966, 0.094460554, 0.13381538, -0.009530314, 0.18979406, -0.2840564, -0.5146509, -0.058028564, 0.24646243, 0.15320432, 0.0007988863, -0.25184852, -0.17239857, 0.016725477, -0.09856247, 0.10177538, 0.12539822, -0.04802116, -0.005334302, -0.14314337, 0.23888534, 0.059413508, 0.1313787, -0.14379439, 0.1277627, 0.122075796, 0.02667998, 0.197502, 0.049200132, 0.22248802, 0.33703807, -0.031755567, 0.02950464, -0.015702378, 0.0101735955, -0.0103819035, -0.071613744, 0.036545407, -0.43904176, 0.11612699, -0.04057783, 0.25464076, 0.13580742, -0.20376617, 0.15657806, -0.5986639, 0.19579414, -0.10475538, -0.015474511, -0.39817667, 0.035387926, -0.10209509, -0.043876752, 0.11675289, 0.28183937, -0.020391334, 0.17894036, 0.1821817, 0.110075, 0.31078085, 0.15454474, 0.10082096, -0.44724336, -0.12751365, 0.058659334, 0.21767427, -0.08876836, 0.23166227, 0.13992068, 0.111354396, 0.4076503, -0.0849332, 0.12215253, -0.053565092, -0.04539636, -0.026916778, 0.15448906, -0.1399785, 0.011751166, 0.11728881, 0.07379858, -0.27668342, -0.0956216
-0.08639246, -0.24707344, -0.28651196, 0.032211427, 0.17811023, 0.16918959, -0.035448357, 0.044634137, -0.042676955, -0.19036944, 0.2000986, -0.006383743, 0.07070592, 0.14388391, -0.053172134, 0.19038728, 0.24898514, -0.20521978, -0.007961868, 0.050624814, 0.30976552, 0.20459197, 0.15546544, 0.255547, 0.22810632, 0.028817581, -0.1709763, 0.14337805, -0.18273215, 0.08779173, -0.035964925, 0.07443801, -0.03500127, -0.008105025, -0.015495823, -0.20504573, 0.07999319, 0.20882092, 0.06188034, 0.16936815, 0.1828318, 0.016997905, -0.30588317, 0.13578466, 0.0013942594, -0.10084149, -0.21868862, 0.08675461, 0.08911287, 0.051679343, 0.22046284, -0.41711614, 0.15138198, 0.020571671, 0.2721428, -0.12083874, 0.026313689, -0.043281842, 0.06545469, -0.04688605, 0.16641589, 0.0974563, -0.13768251, 0.42871752, -0.023293655, 0.1273514, 0.12099319, -0.058819402, -0.03470536, 0.18748423, 0.2087094, -0.13723418, 0.04056445, -0.16022593, 0.135044, -0.15942372, -0.054528475, -0.034443237, -0.076323316, -0.062923566, -0.021516096, 0.081524804, -0.2373757, -0.21618648, 0.0536365, -0.2683293, 0.100401215, 0.01432664, 0.05760852, 0.04172509, -0.3046295, -0.35048524, 0.32895014, -0.09999436, -0.110439084, -0.12520279, -0.10360155, 0.18026021, 0.13770008, 0.20352419, -0.13458586, 0.015319932, 0.12543558, -0.013906273, -0.118614465, 0.12824242, 0.04695683, 0.009370831, -0.11719675, 0.0878673, -0.034626663, -0.036986176, 0.096646436, 0.093117036, 0.044323057, 0.08891498, 0.025918674, 0.29339302, 0.11624958, 0.035120312, 0.35817197, 0.08234992, -0.009005466, -0.009586941, 0.024883877, 0.07912564, -0.19111377, -0.101260826
-0.09667513, 0.055363998, -0.0670379, 0.022030478, 0.1484778, 0.06194025, -0.005489261, -0.086014315, -0.033784892, -0.14900263, 0.30078024, -0.027198438, 0.027430363, -0.021447351, 0.08115599, 0.031523865, 0.06130329, -0.0035023014, 0.10632496, 0.060432214, 0.11143824, 0.054927506, 0.046278805, 0.13645276, 0.037444163, -0.04975571, -0.09986185, 0.14951442, -0.073021285, -0.23730528, -0.25588688, -0.035245787, -0.03070055, -0.18462364, 0.17182924, -0.16349788, -0.29056987, -0.08729272, 0.07980753, 0.051587954, 0.01228519, -0.1960684, -0.21352066, -0.014970519, -0.1292494, -0.06718482, -0.37909126, -0.0062940065, 0.089401945, 0.039434165, 0.15084633, -0.29264638, 0.02298834, 0.03726462, 0.41144702, -0.059505016, 0.10212953, -0.08313317, 0.032800853, -0.26529005, 0.09100253, 0.08958985, 0.021159053, -0.082791686, -0.09283158, 0.08141883, 0.09103885, 0.0133409705, -0.31600273, 0.16273656, 0.07856528, -0.68636143, -0.1770953, 0.10678267, 0.045765597, -0.2877388, -0.026545905, -0.08120078, -0.01612486, -0.015521435, -0.14435048, -0.13913886, -0.11125497, 0.25847265, 0.076441236, -0.0007428526, 0.021072773, -0.011822616, 0.06044088, 0.002215949, 0.010646565, -0.36649245, 0.3606257, -0.30605453, -0.06725615, -0.04019468, 0.15010773, 0.3009037, 0.15059964, 0.035983335, 0.08279026, -0.020067278, 0.13375314, 0.08890841, -0.5256248, 0.228599, 0.12094286, 0.40258554, -0.015625764, 0.019473214, -0.116652444, 0.07153763, 0.13339496, 0.26328248, 0.1778558, -0.052693594, 0.21439081, 0.06056697, 0.1994084, 0.18360808, 0.29220507, 0.14915168, 0.07580959, 0.1250188, -0.06297859, 0.00076562935, -0.09102149, -0.17588513
-0.35540703, 0.1859094, 0.1567193, 0.17800742, 0.009863973, -0.013124944, 0.04835877, 0.061569255, 0.12205173, 0.09541251, 0.17580105, -0.005578634, -0.17195038, 0.018016528, 0.046539173, -0.02709197, 0.040555112, 0.03964204, 0.053706255, 0.16989377, 0.19122796, 0.013292128, 0.10524848, 0.13269958, 0.024242677, -0.015540176, -0.14203426, 0.21370643, 0.07571518, -0.5714186, -0.042164605, 0.08530311, 0.03593639, -0.196686, 0.079363376, -0.11792936, -0.46401736, 0.049607933, -0.026550572, -0.11217882, 0.20201029, -0.10912752, 0.11370041, -0.033279236, -0.1328995, 0.06917125, -0.1442352, -0.050533377, -0.010828369, 0.011315234, 0.18091564, -0.3591893, -0.0021751835, 0.036737747, -0.22152309, 0.06628754, 0.020623391, -0.19423506, 0.06370819, -0.2896244, 0.013399507, 0.081494465, -0.18062727, 0.068402514, -0.08899142, 0.04743814, -0.08372123, -0.07297486, 0.09307933, 0.08373346, 0.11910225, -0.26715064, -0.28627783, -0.036221497, 0.15193203, -0.23574714, -0.12085552, -0.22457577, 0.060912006, -0.25888136, -0.14019726, -0.29676175, 0.08954503, 0.18022153, -0.09437638, 0.12917706, 0.008165982, 0.05848551, -0.08400213, -0.13917024, 0.13910423, -0.2313102, 0.1611559, -0.2866727, -0.04809005, -0.056850456, 0.026467133, 0.41515243, 0.05523242, -0.08848704, 0.09819248, 0.016903533, -0.12077961, 0.14519413, -0.18598717, 0.23980276, 0.20861436, 0.15529914, -0.20188673, 0.021716041, 0.034242176, 0.119168386, 0.057639994, 0.033313695, -0.043161735, -0.09904469, 0.18344447, 0.1286408, -0.03992965, 0.18571217, 0.07317133, 0.009049255, -0.07012988, 0.16193347, -0.15420519, -0.064606726, 9.6262964e-05, -0.49208862
-0.4857599, 0.24075489, 0.16311117, 0.12222361, 0.029696444, -0.02873371, 0.1494628, 0.10320859, -0.11725569, 0.19925538, 0.29484454, 0.038214557, -0.33080387, -0.1882388, -0.062252637, -0.09283755, -0.07711468, -0.030241175, 0.11072311, 0.04156109, 0.023613643, 0.13577928, 0.08069865, -0.1612575, 0.20881473, 0.28139934, -0.119031444, 0.3094942, 0.14788035, -0.5877089, 0.088286236, -0.08666069, -0.05536557, -0.0769082, -0.082083926, 0.004140305, -0.19031014, 0.23017575, -0.022455644, -0.006919962, 0.13686542, -0.21038203, 0.52005893, -0.019126946, -0.13352159, 0.09741729, -0.12440249, 0.13576594, 0.032126095, -0.30648768, -0.0746786, -0.15738165, -0.13367923, 0.04440275, -0.4548079, 0.003106948, 0.22669859, -0.030017635, -0.19468501, -0.3938495, 0.12437558, 0.11811944, 0.07820123, 0.1706315, -0.058866657, 0.10238237, 0.1344065, 0.13152865, 0.27775705, -0.000833347, 0.41166213, -0.2782659, -0.35667792, 0.07665029, 0.2909959, 0.049108583, 0.1460378, 0.09225725, 0.07731691, -0.2281839, 0.03647197, -0.3277832, 0.23710658, 0.31785938, -0.19902655, 0.051689412, -0.097650975, -0.025484683, -0.04271566, 0.042263437, 0.15370166, -0.5089612, -0.19989696, -0.021082407, -0.032683577, 0.08056442, -0.07801232, 0.2342727, -0.1384489, -0.17426601, 0.06564211, -0.19006453, -0.05028123, -0.09584974, -0.32688376, -0.098234944, 0.053831566, 0.29539156, -0.15984489, 0.14345895, -0.08966607, 0.07213096, 0.103037275, 0.259182, 0.17397316, -0.14829701, 0.041445453, 0.06851471, -0.10989286, 0.12293424, -0.021275578, 0.27885988, -0.10237247, 0.1490257, 0.11055451, -0.21160926, 0.07391539, -0.5050182
-0.14881876, 0.40220466, -0.02980584, -0.047403786, 0.23542158, 0.035247374, 0.38948524, 0.18641125, -0.14476766, 0.20401405, 0.3130678, 0.10974204, -0.114329316, -0.14748582, -0.31479996, -0.10341897, 0.3372849, 0.21366808, 0.30733663, 0.34119067, 0.28633246, 0.34245005, -0.2323556, -0.020198803, 0.34950545, 0.16113658, 0.07290606, 0.015860789, 0.39677134, -0.25842813, 0.03094039, -0.122855544, -0.1779888, 0.050984807, -0.07891593, -0.25065556, -0.12709351, 0.02510619, 0.09959019, -0.06320967, -0.04309794, 0.39367703, 0.3906644, 0.08715538, -0.09940547, 0.0337952, 0.016018149, 0.3019375, -0.06577905, -0.47501448, -0.12518103, 0.053592715, -0.27921507, 0.23618211, -0.40396032, 0.24777773, 0.1258473, -0.1433561, -0.25330082, -0.07760941, 0.16398188, 0.5280293, 0.077639475, 0.3119377, 0.10862602, 0.4278594, 0.20004672, 0.30282137, 0.004385099, 0.022305707, 0.45024332, -0.23907945, -0.3107777, 0.15090445, 0.2186797, 0.26307535, 0.21742205, 0.13593417, 0.21182337, 0.011504471, 0.08753029, -0.23955728, -0.35284945, 0.08282852, 0.07519806, -0.23718499, -0.28014237, 0.29527885, -0.083514035, 0.030184187, 0.049896363, -0.12152651, -0.3957237, -0.16890638, 0.05836153, 0.046532538, -0.046884615, 0.20830262, -0.048648827, 0.114746094, 0.25318837, -0.07375633, 0.27552885, -0.24963668, -0.20936571, -0.04776312, 0.2845359, 0.31978223, -0.2283303, 0.13615444, 0.10906381, -0.18870904, 0.13173443, 0.30644718, 0.44568607, -0.10330302, -0.01568968, 0.09683984, -0.07153298, 0.08440986, -0.3495174, 0.47970507, -0.0031676579, -0.0025298137, 0.36559418, -0.3899951, -0.11137777, -0.2441305
-0.22521225, -0.12363563, -0.14309151, 0.32668918, 0.018689562, -0.17130247, -0.22086331, -0.16456324, 0.19818547, -0.075727336, -0.12366593, -0.13968702, 0.2659454, 0.16152367, 0.14892185, -0.24151984, -0.08971744, -0.082209, -0.059063964, 0.2170021, 0.24265543, 0.14916557, 0.23997176, -0.3024169, -0.0208325, -0.16571131, 0.12563513, 0.058363937, -0.09558623, -0.15110923, 0.24041542, 0.041714527, 0.2974111, -0.11264417, -0.11891536, 0.18224712, 0.19163534, 0.23862259, -0.11389265, 0.11033006, -0.048923302, 0.36068878, -0.13193576, 0.11815796, -0.0353029, 0.07222727, 0.24721134, 0.0036650395, -0.22997361, 0.2513748, -0.10782068, 0.2708219, -0.12086092, -0.0799211, -0.049193755, -0.18486348, 0.23508123, -0.10751728, -0.14960289, 0.014341855, 0.19852243, -0.20723182, 0.13949488, 0.09601679, 0.04911182, -0.16458547, -0.043685015, 0.037653886, -0.17546979, -0.12822193, -0.123691365, 0.3921036, 0.061247487, -0.02940408, -0.2378579, 0.018378189, 0.041005097, 0.38527298, -0.13812914, 0.005639619, -0.21893318, 0.27448604, 0.40021825, 0.36154687, -0.019499, 0.009135203, 0.19536535, 0.1316555, -0.07516139, 0.21801181, -4.1954234e-05, 0.13373072, -0.09609036, 0.017327722, 0.17460512, -0.047414273, -0.26226178, 0.030532578, 0.13013399, -0.083896086, -0.32125095, 0.10841981, -0.16235964, 0.19431432, -0.14515728, -0.16314599, -0.08181839, 0.2790447, 0.26466697, -0.23329891, 0.02061366, 0.16529317, 0.049072485, -0.015460588, -0.19206905, -0.1938787, -0.023998322, -0.13070549, 0.057160366, -0.11709622, 0.07314781, 0.15529945, 0.22105627, 0.06084216, 0.3352047, 0.37246212, 0.35679227, -0.061166342
0.0034452009, -0.13686527, 0.0031561195, 0.13599454, -0.26329824, -0.33400792, -0.34930396, 0.15127537, 0.1639149, -0.111253396, -0.041009795, -0.006296804, 0.23890582, 0.19523355, 0.056064453, -0.0014071536, -0.06746955, -0.176295, -0.5138029, 0.09562109, 0.17396268, -0.15536577, 0.1917016, -0.35288733, 0.07185072, 0.5518009, -0.06990608, 0.09071348, 0.01375483, -0.2434531, 0.10427016, -0.19427347, 0.13834225, -0.12010374, -0.085127346, 0.19488004, -0.22240056, 0.07327566, 0.22114924, 0.018735813, -0.2651674, 0.18526411, -0.16915874, 0.372189, 0.24922928, -0.0016914651, -0.05536349, -0.4134545, -0.2257813, -0.090452395, 0.16055423, 0.130843, 0.068025626, -0.23295018, 0.12644318, -0.2966817, 0.20690273, -0.074817814, 0.15244028, 0.21840744, -0.05403462, -0.015596926, 0.008563729, 0.0122616915, 0.15309009, -0.03440251, 0.11152195, -0.28582117, -0.35077488, 0.2124078, -0.22862358, 0.16235064, 0.16588241, -0.23542121, 0.0016470283, 0.14039762, -0.010114909, 0.52490515, -0.020106735, 0.08226268, 0.07138775, -0.016474878, 0.37786815, 0.383004, -0.26664606, -0.16420612, -0.09406788, 0.027564837, -0.11613965, 0.05021486, -0.00037739886, 0.023227649, -0.15915658, -0.23703046, 0.24878156, 0.10391782, 0.17134427, -0.06207131, 0.06031495, 0.14239193, -0.009657169, 0.06479869, -0.2174119, 0.2468525, -0.2096021, -0.17511514, -0.08890839, 0.2029541, -0.031220907, -0.29181147, -0.17084013, 0.15652668, 0.09208598, -0.19374467, -0.19578014, 0.27738592, 0.13952345, -0.0058912183, -0.14606677, -0.018200666, 0.12968962, -0.26029855, -0.1085189, 0.1027798, -0.011506773, 0.02867546, 0.1657647, 0.32766855
-0.20404974, 0.009415084, -0.21505567, 0.2083925, -0.09195097, -0.19280146, 0.12142674, 0.18223417, 0.04900539, -0.15970385, -0.013553428, 0.050178897, 0.14342041, 0.06569272, 0.023211543, -0.1120613, 0.048852965, 0.09044341, -0.08984902, 0.06804576, 0.098617174, -0.19807771, 0.20965537, -0.34584692, 0.24750847, 0.2060917, -0.0427559, 0.030346125, 0.15112904, -0.46493185, 0.1783876, -0.18355341, 0.17196755, 0.09024778, 0.015315518, 0.15601294, -0.04855293, -0.05004858, 0.14067528, -0.1861132, -0.15477769, 0.1459984, 0.017877534, 0.16949832, 0.006912599, -0.20917645, 0.10531453, -0.011429456, -0.2550573, 0.1477611, 0.124822564, -0.022078736, -0.251923, -0.19044828, 0.02610502, -0.36161533, 0.10798002, -0.10874545, 0.10177663, 0.06447264, 0.06984194, 0.12740709, -0.02339735, 0.083715625, -0.14465857, 0.07037229, 0.035201974, -0.16028498, -0.22381292, -0.04722342, -0.33516088, -0.04677083, 0.1604816, -0.29358968, -0.009703663, -0.09694745, -0.0071583292, 0.20257081, 0.021587553, 0.048789978, 0.068936855, 0.2166421, 0.09053606, 0.07794476, -0.10492397, -0.08379044, -0.06386953, 0.07580557, -0.27450985, 0.2889386, -0.16612831, 0.0036711646, 0.07778289, -0.4217013, 0.27919182, 0.10560971, -0.10698453, -0.1575892, -0.010506493, 0.19572997, -0.009155249, 0.11783046, -0.12891242, 0.18768057, -0.06915825, -0.1679435, 0.08283062, 0.077413365, -0.063159876, 0.04625671, -0.0925997, 0.08377697, -0.06619237, -0.3714435, -0.045314286, 0.15402517, 0.102392085, -0.23351355, -0.12359575, -0.28537303, -0.11682615, 0.077252395, 0.00043212043, -0.06026963, 0.07965224, 0.09568398, -0.025884854, -0.0936676
0.080484815, -0.055726007, -0.03156204, 0.16442142, 0.019389596, -0.07955618, -0.010599023, 0.154683, 0.035683252, -0.069872946, -0.08720937, -0.14361271, 0.075181, 0.006591287, -0.046760157, 0.1622947, 0.21918756, 0.133432, -0.23404256, 0.026521022, 0.10440209, 0.21571426, 0.1821595, -0.2372145, 0.18677665, -0.05981321, 0.17510687, 0.05747948, 0.16890383, -0.54462117, 0.23532821, -0.21578044, 0.13265662, 0.13206576, -0.09468449, 0.13850938, 0.037955895, -0.09357304, 0.21653913, -0.14788696, -0.14026791, -0.0069914972, -0.19648436, 0.25446326, -0.028355973, -0.06381314, -0.008766187, -0.074382834, -0.1516068, 0.19425365, 0.1720789, -0.075831294, -0.2162491, -0.22855659, 0.069645844, -0.05911177, 0.12140437, -0.072658435, 0.015055914, 0.012330665, 0.044400502, 0.18080346, -0.11631292, 0.12429186, -0.0060713436, -0.009478053, -0.1732257, -0.4603445, -0.06586518, -0.061940692, -0.37250146, -0.03677611, -0.05475581, -0.21618515, 0.03707605, -0.06725193, -0.099736094, 0.19236462, -0.29589185, 0.027645085, 0.16036688, 0.16144353, -0.3076495, -0.1047721, 0.035904717, 0.045353003, 0.059527166, 0.07137847, -0.2633993, 0.24968365, -0.20544198, 0.076374024, -0.16580795, -0.49249148, 0.29783604, -0.05700894, 0.064205624, 0.0091600055, 0.028671445, -0.017360756, 0.04663447, 0.042403888, 0.12156922, 0.26522258, -0.13366921, -0.48833188, 0.20670497, 0.17730512, -0.1085732, 0.05634954, 0.10306694, 0.27567858, -0.08145251, -0.20670168, 0.22701506, -0.22336565, 0.04163956, -0.18369593, -0.4024372, -0.33129734, 0.16817999, 0.28649133, 0.08725461, -0.18259136, 0.05833085, 0.09842023, 0.04727126, -0.28193277
-0.035308897, 0.2377206, 0.08648955, -0.12915452, 0.09602625, -0.14871484, 0.19379042, 0.23712054, 0.038598828, 0.14423028, 0.10992941, -0.5522613, 0.19818003, 0.08362138, 0.17289342, -0.13533401, 0.25493687, 0.32435408, 0.1031572, 0.046873722, -0.004690854, 0.21199186, -0.021460988, -0.13592583, 0.11380537, 0.033344846, 0.098601766, 0.048451547, 0.15458591, -0.0071479306, -0.061453853, -0.17729197, -0.104704514, 0.060622554, -0.018858856, 0.13963467, 0.18623322, 0.06135398, 0.22622377, -0.2275601, -0.052647788, 0.07418869, -0.15947679, -0.2587544, 0.16247958, -0.028306331, 0.117636085, 0.09955918, -0.12180233, 0.18483756, -0.026806748, -0.052819386, -0.28542063, 0.107223324, -0.072295606, 0.13359585, 0.099291794, -0.047048084, -0.108494185, 0.09682356, 0.15041634, -0.007238846, 0.076071635, 0.08514345, -0.14922836, 0.072886616, 0.035798993, -0.0776248, -0.08206147, -0.062869824, -0.2942654, -0.13509944, -0.02798173, -0.09985358, 0.13239293, 0.19202103, 0.1489778, 0.15773113, -0.2350063, 0.15842433, 0.12421597, -0.038803786, -0.33844566, 0.1507139, 0.13181509, 0.2689348, -0.037492853, 0.022281831, -0.22800007, 0.29177237, 0.021629779, -0.0009927258, 0.03376044, -0.24618031, 0.20458111, -0.09622656, -0.12684703, -0.0012347167, -0.19102007, 0.06806573, -0.0825073, -0.2241203, 0.13292626, 0.10322455, 0.067249894, -0.07485957, -0.046221506, 0.36796653, 0.14140111, 0.052772056, 0.17780443, -0.18367542, 0.054380074, -0.14890316, -0.16105926, -0.04694726, 0.030335078, -0.14830457, -0.27786016, -0.15790772, -0.04279682, -0.01780546, 0.011993053, -0.13899003, 0.034421902, 0.22367804, 0.045181528, -0.3818073
-0.03975527, 0.10785005, 0.06337509, -0.19535401, 0.17768134, 0.11554905, 0.05749777, 0.27451354, -0.022023596, -0.04601066, 0.055063188, -0.54561687, 0.12440406, -0.07796145, 0.18499574, -0.30886564, 0.16904405, 0.2385678, 0.22562388, -0.061859798, 0.3739858, 0.12854259, -0.32390943, 0.08099332, 0.19629964, 0.131134, 0.08192336, 0.19224946, 0.29554385, 0.1902727, 0.019796288, 0.118016556, -0.016827751, -0.14379732, -0.06879404, 0.104704835, 0.15495713, 0.1495721, 0.09072402, -0.23275776, 0.056752015, 0.2192867, 0.06930626, -0.55582184, 0.31388578, -0.28192115, 0.03991434, 0.3567498, -0.115361534, -0.020521767, -0.010270837, 0.024422456, -0.16514117, 0.033847768, -0.4979548, 0.019382037, -0.11107064, -0.117206804, -0.27651367, 0.1163643, 0.035053965, 0.01058159, 0.13888153, -0.2486988, -0.14750317, 0.07063695, 0.07332687, 0.2677701, 0.23226136, -0.07060882, 0.25893924, 0.044848166, -0.11186717, 0.0687985, -0.10099418, 0.30493012, 0.11096953, 0.086396605, -0.17128451, 0.039603733, -0.4074703, 0.14403448, -0.028828789, -0.04423499, -0.017408833, 0.1892786, 0.0045389123, 0.0918399, -0.16728179, 0.25723767, 0.25866807, 0.21027923, -0.19532621, -0.23943943, 0.08338962, 0.08340846, 0.13962193, 0.20899376, -0.12154464, 0.10003412, 0.037864253, 0.05980627, 0.10147673, 0.117608875, 0.08912828, 0.23249015, -0.18691401, -0.16933465, 0.19012882, -0.14683224, 0.08563633, -0.01467924, 0.057907995, -0.037819266, -0.05148925, -0.22320735, -0.008937807, -0.0029357737, 0.0007969085, -0.09046254, -0.057992812, -0.4239745, -0.041123066, 0.021679884, -0.15561049, 0.08390108, -0.08267498, -0.40635037
0.29463747, -0.057974506, -0.52918434, -0.070594326, 0.08985014, 0.07148506, 0.19275934, -0.06446164, -0.018608117, -0.20385025, 0.15192774, 0.13149875, 0.09020447, -0.06543664, 0.039265983, 0.07214043, 0.13544378, -0.033036698, -0.50007564, -0.25736502, 0.3325303, 0.046066098, -0.07348268, 0.024313174, -0.12570079, -0.082187265, 0.046297427, 0.21470794, -0.019446446, 0.18516777, -0.15914159, -0.083046526, 0.36229774, 0.1401269, 0.054801036, 0.026921654, -0.3612929, 0.2144596, 0.2511652, -0.7000824, 0.18326657, 0.011661959, 0.1785686, 0.2979864, 0.08067737, -0.08446815, 0.12865946, 0.19986069, 0.05167341, 0.1685832, -0.079328366, 0.36110204, 0.16353038, -0.09744641, 0.20205367, 0.07243874, -0.104131944, -0.08762269, -0.014454196, 0.20924336, 0.24215662, -0.2531873, -0.114851534, 0.110100746, -0.059534457, 0.10119847, 0.0052402373, 0.019834345, -0.22187859, -0.06202835, 0.14086439, 0.26029232, 0.2814483, -0.01943955, -0.14874841, 0.031105684, -0.17830412, -0.004154135, 0.04114431, -0.22782205, -0.07661725, -0.0664945, 0.06039148, -0.5931799, -0.011950343, 0.073894225, 0.017289722, 0.14616655, -0.09494258, 0.27998194, -0.57756174, 0.026979605, 0.07496646, 0.17878711, 0.17986688, 0.016266381, -0.022572398, 0.647113, -0.048362523, 0.24990772, -0.0008890538, 0.21009374, 0.056312744, 0.0014613925, 0.030327227, 0.11280093, -0.18988816, -0.35455826, 0.01595534, 0.010114388, 0.17419612, -0.10103236, -0.030670758, 0.11783506, 0.072162285, 0.3207785, -0.054602906, 0.03336412, 0.15979646, -0.11324294, -0.44385412, 0.04941981, 0.024811491, 0.31227937, -0.3552265, 0.15274571, -0.31158644, 0.14581773
-0.21738347, -0.100074075, -0.27876824, -0.019643964, -0.0012321277, 0.1670635, 0.055835523, -0.10789793, 0.036722302, -0.08968218, 0.09800555, 0.17734663, 0.11305615, 0.015724894, -0.043753613, 0.23388194, 0.07415013, -0.11446495, -0.48966002, -0.006534226, 0.29224923, 0.05173949, 0.20383269, 0.30005002, 0.07795015, 0.015672704, -0.10536397, 0.17010684, -0.08722157, 0.008691455, -0.051440477, -0.21573544, 0.25626326, 0.10650495, 0.15877624, 0.07682459, -0.15322337, 0.23647353, 0.12625036, -0.7531324, 0.19761063, -0.18070447, -0.33883575, 0.35146356, 0.012794846, 0.10707805, 0.14488794, 0.032941077, 0.10424532, 0.17576957, 0.19124849, 0.48703122, -0.059740037, 0.012503988, 0.29770523, -0.05331319, 0.0065206117, -0.101786815, 0.18223043, 0.17801352, 0.08656103, -0.10003307, -0.14200564, 0.2717555, -0.040081814, 0.11943888, -0.08904547, -0.0925311, -0.06837469, -0.08521797, -0.2480675, -0.12747966, 0.23186255, -0.034996763, -0.021162745, 0.0024431539, 0.12837052, 0.016461454, -0.020979097, -0.20826246, 0.11588824, -0.08096989, -0.22274916, -0.06445605, -0.21766677, -0.09569058, 0.26013643, 0.06647015, 0.06822868, 0.14267609, -0.018275712, -0.38186404, 0.045731746, 0.030737305, -0.042291533, -0.07214365, 0.06723194, 0.66421026, 0.06256333, 0.27545583, 0.11277966, -0.0059807342, 0.13780981, 0.031416714, -0.4096514, 0.071018144, 0.108960755, 0.17752144, -0.034356654, -0.09456849, -0.06638392, 0.007273895, 0.15366426, 0.07075082, -0.09999708, -0.022997607, -0.084143244, -0.123828225, 0.01827224, 0.06680068, 0.34507975, 0.03668618, 0.13218237, 0.24869809, -0.03566779, 0.16673034, -0.10908292, 0.18234079
-0.13376047, -0.12099733, 0.09944893, 0.08235832, 0.045787193, 0.093667805, -0.017131614, -0.06488297, 0.10862238, 0.19944252, 0.1514139, 0.009385279, 0.108685076, 0.07994629, 0.12041318, 0.23590723, 0.09793998, -0.1304116, -0.6133175, -0.085436076, 0.08455708, 0.12614256, -0.020140268, 0.2080197, 0.07529449, 0.06206097, -0.13908175, 0.1318085, 0.1432864, -0.068465464, 0.038251523, -0.0823445, -0.016759476, 0.048650254, -0.06752707, -0.006214751, 0.00045278668, 0.2138377, -0.0524962, -0.5321964, 0.30334094, 0.08729074, -0.18817434, 0.021948718, 0.07852808, 0.11202875, -0.019464746, 0.006732273, 0.07543617, -0.028610725, 0.11594061, 0.43358505, 0.08551454, 0.11632593, 0.301147, 0.00015540712, -0.018577598, -0.06596153, 0.29766166, -0.038380347, 0.12839176, -0.11433846, 0.17112516, -0.15051268, -0.24509948, 0.057721987, 0.069531806, 0.020046499, -0.15835518, -0.029235035, -0.05784941, -0.48875755, -0.22560214, -0.12875521, -0.028449846, -0.17252906, 0.19475861, -0.26987305, -0.15953417, -0.29293153, 0.096901566, 0.013072858, 0.1802593, 0.11960116, -0.17319961, 0.018736705, 0.065823264, -0.11286862, -0.015434172, 0.11596556, 0.22005461, -0.333446, 0.24172623, 0.15779881, -0.016871462, -0.094245486, 0.11270501, 0.5568721, 0.05084788, -0.107389756, 0.19902147, 0.07587286, 0.023560682, 0.07138067, -0.27363092, -0.09647158, 0.08606004, 0.22663909, -0.118130594, 0.008326958, -0.24986097, -0.009940181, 0.059696775, -0.13079508, -0.20693886, 0.10217007, 0.15403184, 0.0519735, 0.17097598, 0.1674323, 0.48645028, -0.051439133, 0.041860934, 0.15811396, -0.050843913, 0.0037707805, -0.06860243, -0.12779796
-0.16892903, 0.036393195, 0.18607688, 0.22424416, -0.047983576, 0.06898725, 0.12054767, -0.029740674, 0.13200152, 0.09349782, 0.06347829, 0.10729305, 0.040422898, -0.050823335, 0.089216165, 0.0346042, 0.11994161, 0.13215701, -0.62373585, -0.14245836, 0.06829895, 0.11850536, -0.13998386, 0.14989313, -0.038662888, 0.082661405, -0.14517388, -0.022539547, 0.14575528, -0.29782993, 0.06340393, -0.28409016, -0.07807054, -0.007042725, 0.1431776, -0.00016333273, -0.35487485, 0.2935875, 0.16347161, -0.38692287, 0.19846901, 0.044544674, -0.0996746, 0.18417929, -0.060148526, 0.121735625, 0.24103373, 0.092804275, -0.0670014, 0.11117079, -0.16100359, 0.30391443, 0.069769345, -0.09826164, -0.30612314, 0.036939457, 0.009191871, 0.007709907, 0.03644445, -0.4670084, -0.015569776, 0.08700279, 0.11919701, 0.07494841, -0.15753226, 0.09523602, 0.1040265, 0.007704377, -0.113002636, 0.05836847, 0.13634734, -0.07939828, -0.39021143, 0.17438611, 0.24235973, -0.29776317, 0.21106443, 0.020510143, -0.07087738, -0.35153952, 0.040976033, -0.08194422, 0.15566236, 0.14872174, -0.07247309, 0.059780926, 0.10135793, -0.121291004, -0.0663685, -0.028364563, 0.16604114, -0.117731325, 0.22783165, 0.23120946, 0.08331454, -0.04689247, 0.12161924, 0.3502534, 0.20023187, 0.03479267, 0.13274209, 0.010688199, -0.14548433, 0.07335168, -0.36541346, -0.15875274, 0.14597568, -0.08987165, -0.36716247, -0.07188219, -0.29074764, -0.10112762, -0.018055148, -0.037867315, -0.12799028, -0.0026908733, 0.19687763, 0.08527828, 0.22150275, -0.022669688, 0.13479924, -0.020388544, 0.055124313, 0.24710964, 0.072779134, 0.022554219, 0.14143145, -0.6061188
-0.20830104, 0.4295876, 0.021054812, -0.090518914, 0.058398332, -0.16959834, 0.34001324, 0.17298768, -0.0059866835, 0.047860928, 0.07675347, -0.074918225, -0.43973124, 0.050165378, 0.084789746, -0.052872457, -0.05858584, -0.03982205, -0.40398684, 0.05422777, 0.074687265, 0.12498402, -0.17031573, 0.08078354, -0.23463732, 0.121365055, -0.00839216, -0.020991703, 0.42812112, -0.5809386, 0.21845023, -0.18320434, 0.041456535, -0.3244432, -0.14944188, -0.18482986, -0.14636828, 0.20749813, 0.32525557, -0.061222054, 0.27413544, 0.29999438, 0.090734184, 0.02808308, -0.20908345, 0.0055403044, 0.16006252, 0.17935213, 0.18956214, -0.16885637, -0.040429678, 0.1523316, -0.16610175, 0.17880546, -0.59628654, -0.17677146, 0.010412274, -0.2351714, -0.3354505, -0.5393819, 0.13879092, 0.108109646, 0.2908509, 0.14285709, -0.015692735, 0.23837294, -0.059930194, 0.08321731, 0.038776953, 0.105376504, 0.14929342, -0.25257993, -0.41259724, 0.044969544, 0.34955397, -0.07832075, 0.14039202, 0.06472043, -0.19696575, -0.3531039, -0.006278278, -0.16808595, 0.07498465, 0.07943402, -0.0072442945, 0.1069056, 0.012047884, 0.0066490173, -0.014330821, -0.014342174, 0.34458828, -0.7124189, 0.067204945, 0.20443536, 0.0780858, 0.028483141, -0.11919482, 0.25391465, 0.15249892, 0.16158801, 0.01594271, -0.030893905, -0.11390545, 0.044686235, -0.2964097, -0.17576694, 0.07426853, 0.06809884, -0.3703818, 0.09473205, -0.16831388, 0.057136435, 0.113467745, -0.0027472733, -0.07463581, -0.31528962, 0.17801988, -0.07872405, -0.099443525, -0.21532932, -0.1498689, -0.022076663, -0.06634504, 0.23520699, 0.069292426, -0.111852214, -0.017475393, -0.39452577
0.00058765, 0.39373162, 0.16762456, -0.14520413, 0.15348093, 0.11155865, 0.58153236, 0.07129567, -0.26216915, 0.140075, 0.15578309, 0.06645607, -0.14833546, 0.05675608, -0.47623587, -0.133193, 0.19107723, 0.21780074, -0.0086776735, 0.5157813, 0.15475623, 0.13816783, -0.20678085, -0.20898172, 0.24444842, 0.24821152, -0.012461799, 0.0051181116, 0.42190793, -0.3731957, -0.044066828, -0.10087006, -0.2037517, 0.25745794, -0.3793212, 0.115016535, -0.016109264, 0.21079734, 0.27562, 0.2164648, 0.006530046, 0.4232684, 0.43384936, 0.24124195, -0.22946948, 0.026820006, 0.27603397, 0.19862743, -0.091997415, -0.5571695, -0.10207758, 0.09667853, -0.29709864, 0.12681764, -0.49074066, -0.004895741, -0.06851285, -0.021097282, -0.4190036, -0.33861828, 0.48121068, 0.2682142, 0.18667552, 0.33047897, 0.057341333, 0.18728209, 0.10956868, 0.018450955, 0.10553351, 0.013635864, 0.16707249, -0.30385897, -0.30792537, -0.011681993, 0.03943052, -0.13946107, 0.14151268, -0.13407572, 0.3001614, 0.11693744, 0.0800543, -0.26628205, -0.3734388, -0.06698795, 0.24511003, -0.13469392, -0.17892013, 0.17013243, 0.02286834, 0.20652835, 0.16104244, -0.267908, -0.35921335, 0.2185826, 0.16963565, -0.022851845, -0.31186792, 0.002926878, -0.0042089457, -0.05173013, 0.021781655, 0.09418851, 0.23332909, 0.03578985, -0.06321652, 0.1771056, 0.06325989, 0.11455113, -0.503483, 0.21161395, -0.06905564, 0.08681519, 0.17682756, 0.31158063, 0.31278697, -0.24223483, 0.07819766, -0.11705094, -0.09021433, -0.15129557, -0.24910858, 0.42902812, 0.0058921343, 0.1260927, 0.32227644, -0.4265688, -0.114296556, -0.29949212
-0.18285929, -0.19507404, -0.058648337, 0.23198706, -0.047973998, -0.28355134, -0.29664966, -0.17428693, 0.22970542, 0.020064142, 0.109810784, -0.13613476, 0.3116706, 0.21224351, 0.31508523, -0.11576629, -0.31443053, -0.23221941, 0.17074458, 0.31557694, 0.21477889, 0.05250704, 0.19177678, -0.40513515, -0.023230819, -0.06968067, 0.24406672, 0.30274212, -0.095830515, -0.04938057, 0.33835799, -0.14225987, 0.2278885, -0.12750326, -0.2539307, 0.25430688, 0.1855655, 0.210497, 0.0021639331, 0.18480378, -0.029874872, 0.35004875, -0.25943696, -0.012162265, -0.27576852, 0.12056681, 0.40340528, 0.028480543, -0.28151205, 0.26559958, -0.04826752, 0.26610813, -0.01581779, -0.1784583, 0.02028669, -0.35244805, 0.27092898, -0.1918054, -0.053304568, 0.28360105, 0.0730888, -0.15599713, 0.32609653, 0.045459516, 0.04210956, -0.25474203, -0.09680734, -0.10191695, 0.046096932, -0.04684598, -0.11204556, 0.40925992, -0.14200325, -0.056130942, -0.20100057, 0.26661986, 0.048668526, 0.3028799, -0.1584389, 0.059746034, -0.060385212, 0.1543682, 0.22695477, 0.18025044, 0.11992924, 0.15649249, 0.2921498, 0.36475635, -0.047627017, 0.44466797, -0.14123552, 0.17994553, -0.1803693, 0.093920864, 0.4139062, 0.007865254, -0.13434437, 0.16986798, 0.10006691, -0.0012530312, -0.20543098, 0.36021695, -0.23760489, 0.2561088, -0.09943087, -0.062572986, -0.29879805, 0.37487903, 0.256981, -0.37835178, 0.00035955338, 0.2869142, 0.29434755, -0.066677965, -0.22487119, -0.05361014, -0.13872814, -0.031868163, 0.28518343, -0.21706507, -0.109723024, -0.049366437, 0.019907035, 0.19909379, 0.21509868, 0.34667784, 0.24422112, -0.16706997
-0.18741207, -0.097404316, -0.211147, 0.07634886, -0.073355645, -0.22810853, -0.21536763, 0.17165078, 0.37741572, -0.12339069, 0.062435925, 0.07671263, 0.23834135, 0.13239475, -0.13557938, 0.20439339, -0.0004349904, 0.07554663, -0.10883219, 0.22334461, 0.06698586, 0.024615306, -0.030269215, -0.008754266, 0.21200131, -0.0048701833, -0.06427511, 0.057707183, 0.16155283, -0.33838058, 0.16450877, -0.1436336, 0.1029426, 0.05031994, 0.04044562, 0.10093093, 0.14253299, 0.33871403, 0.09545184, -0.017653063, 0.102635086, 0.26098567, -0.031740304, 0.29863533, -0.025190718, 0.0946116, 0.0023859343, -0.0730756, 0.024374142, -0.10525477, 0.13470316, 0.091916494, -0.14773317, 0.033261254, 0.12929857, -0.14999813, 0.03706131, -0.038294245, 0.114035174, -0.1994671, 0.039522305, -0.19719724, 0.21057135, -0.03299374, 0.05829103, -0.08946291, -0.072535224, -0.09076474, -0.14302994, -0.03186793, -0.29135555, 0.25436944, 0.10225145, -0.25806046, -0.22968873, -0.14329389, 0.057448108, 0.26943877, -0.024163863, 0.27336723, -0.08161482, 0.014055602, 0.21000132, 0.31225237, -0.015663555, -0.1668619, 0.0014269759, 0.04371592, -0.17427747, 0.11461006, -0.09165254, 0.036942337, 0.013815758, -0.16082576, 0.36787412, 0.09521705, 0.20279905, -0.13882974, 0.029280458, 0.06780291, -0.2007083, -0.012683331, -0.22537105, 0.052583918, -0.2674816, -0.259048, 0.037560306, -0.04436602, 0.012350122, -0.23707004, -0.038912028, 0.18320099, 0.20050792, -0.12884447, -0.17218155, 0.2715314, -0.015681665, 0.08703575, 0.11936584, -0.12669104, -0.062071104, 0.037209284, 0.021767367, 0.2806484, -0.07460586, -0.12390881, 0.04553517, -0.16055068
0.13202594, 0.21241036, -0.14233087, 0.091797724, 0.057443645, -0.072842285, 0.026100937, 0.23306905, 0.017230507, -0.32869208, 0.013155185, 0.17809165, 0.37046784, 0.14822768, -0.24140719, 0.32482046, 0.32891724, 0.15294155, -0.16829082, 0.05219221, -0.019153085, -0.20157403, 0.08388386, 0.064331725, 0.20833667, 0.088937, 0.024606299, 0.0077861636, -0.07435061, -0.6256369, 0.023858614, -0.093946114, 0.081758335, -0.003452075, -0.12309005, 0.15619878, 0.1283477, 0.11531095, 0.29506198, -0.12770572, 0.079843946, 0.08645475, 0.034040082, -0.034243003, 0.119585104, -0.031289194, 0.08007452, 0.07241215, -0.101163685, -0.013061019, 0.21374702, -0.038191255, -0.24300249, -0.16111887, 0.08245618, -0.027418556, 0.07516207, -0.009886786, 0.038449876, 0.015954943, 0.07519968, -0.084744014, 0.15731984, -0.05992734, -0.26303878, 0.047505066, 0.12350484, -0.36017624, -0.31375796, -0.25326562, -0.43792984, -0.01458241, -0.40501252, -0.35468036, 0.030673891, 0.20318905, -0.120254934, 0.30522713, -0.4084021, 0.2248024, 0.1857399, 0.041065615, -0.12545632, 0.0873312, 0.20693089, 0.03310762, 0.19101295, 0.17985691, -0.3235016, 0.022160439, -0.16187745, -0.080818586, 0.015214098, -0.27833524, 0.20113821, -0.24924073, -0.19671987, 0.00564266, 0.02230292, 0.0803131, 0.0026871152, -0.044271246, -0.0637637, -0.18542714, -0.17295983, -0.3513424, 0.05036445, -0.02512901, 0.31817412, 0.11664812, -0.063834436, 0.10166967, -0.026808582, -0.29707548, 0.10351031, -0.052055214, -0.22004698, -0.23102608, 0.02483724, -0.19159785, 0.025966093, 0.05237589, 0.011265997, -0.19315447, -0.0582169, 0.24799977, -0.0664233, -0.42256537
-0.006566559, 0.046082743, -0.03615146, 0.10089291, 0.06012355, 0.07012175, 0.1485102, 0.045187376, 0.015199669, -0.04101132, -0.06890345, 0.0782706, 0.16250443, 0.102022715, -0.13146567, -0.0024857305, 0.2881432, 0.23981716, -0.04700843, 0.08345868, 0.07376877, -0.0020457671, 0.34043786, -0.11556693, 0.081366524, 0.024866387, -0.06865722, 0.1395708, -0.16266094, 0.12213934, 0.0442129, -0.1535345, 0.12582679, 0.056306474, -0.15024994, 0.024009317, 0.06896752, 0.10431718, 0.1686056, -0.041106224, 0.05294076, -0.13068315, 0.10446664, -0.010306907, 0.065713145, -0.14008677, -0.06152582, -0.03581154, -0.0034937905, -0.010140944, 0.14596339, 0.04673441, -0.22290234, 0.16642784, 0.043026004, 0.099476285, 0.08400086, -0.05075282, -0.08785113, -0.0006365684, 0.16679567, 0.07551839, -0.021317707, 0.06532162, -0.40507063, -0.034826282, -0.13457805, -0.45001405, -0.16364421, -0.26172164, -0.43052796, -0.12860186, -0.6230639, 0.089163214, 0.037986428, 0.09899979, -0.17495324, 0.116473615, -0.46536362, 0.15544768, 0.20912364, -0.02677372, -0.05366135, -0.04590797, 0.0295416, 0.15461816, 0.19116494, 0.061298184, -0.016110038, 0.07444309, -0.08618566, 0.13610537, -0.0033471335, -0.29823312, 0.3123019, -0.033179328, -0.15420327, -0.1626865, -0.034843672, -0.026248313, -0.11390615, 0.16438882, -0.034233, -0.3701298, 0.058722623, 0.11027409, -0.04898762, 0.14214072, 0.22464205, 0.25972858, 0.076205015, 0.35577092, 0.12677069, -0.13520353, 0.2790268, -0.12110404, -0.060987335, -0.15385151, -0.08249433, -0.00029487547, -0.11053983, 0.3374706, 0.05307782, -0.36217073, 0.09687045, 0.15890801, -0.011561049, -0.7562792
-0.1280897, 0.30534747, 0.10954173, 0.052330226, 0.08315622, 0.15912536, 0.081084244, -0.0884942, 0.055850882, 0.046757013, -0.08266202, -0.25323316, -0.119613916, 0.13181964, -0.37764713, 0.030145466, 0.27767354, -0.00043895794, 0.11816533, 0.036925927, -0.10283881, 0.135591, 0.13827254, -0.018940192, -0.09315338, 0.021186803, -0.18313386, -0.031179585, -0.10310118, 0.07946163, -0.04391096, 0.20331076, 0.12334272, -0.039857186, -0.10499611, 0.04083102, 0.16091171, -0.087124854, 0.038145, -0.09920617, 0.04641059, 0.20628352, -0.23955859, -0.5564279, 0.11123493, -0.15714134, 0.02645641, 0.060946137, 0.024497272, 0.049523443, 0.034853935, 0.0920124, 0.0637973, -0.090400636, -0.07022236, 0.047637332, 0.06595774, 0.088597596, -0.30299452, 0.051015154, 0.06850012, -0.17502709, 0.171637, 0.07595069, -0.30126956, 0.07694108, -0.057393406, -0.058167867, 0.025751295, -0.23843561, -0.033913504, -0.019235589, -0.55824405, -0.029362472, 0.2202944, -0.0063670063, -0.08862775, 0.09729161, -0.26456982, -0.10763776, -0.1618212, 0.08925669, -0.14569671, 0.2582913, 0.19377936, -0.11069882, -0.050457567, 0.21073683, 0.12673013, 0.2601485, 0.005875498, 0.10649883, -0.04117898, -0.020152586, 0.39661205, -0.04379942, -0.13597606, 0.07479859, 0.12866233, 0.0043947445, 0.12321346, 0.10013697, 0.034619182, -0.5017124, -0.06749078, 0.015965478, -0.18106669, 0.52855754, 0.14050724, 0.17773847, -0.029554436, 0.016617563, 0.07657545, -0.095751345, 0.0406852, -0.22840011, 0.028714675, 0.10580104, -0.17269933, 0.117727235, -0.24448875, 0.18557434, -0.043048304, -0.15041375, 0.06027863, -0.039439764, 0.21000363, -0.34196296
-0.12714101, 0.20730162, -0.010669115, -0.3069682, 0.1911671, 0.01532051, -0.107684895, 0.10252807, 0.15849824, 0.027858878, -0.14540705, -0.3476948, -0.2944645, 0.2284455, -0.6201397, -0.13270853, -0.20265238, 0.11344311, 0.10803933, 0.038586695, -0.13842803, 0.0734032, -0.41411895, -0.20262226, -0.1580876, 0.12329102, -0.15646632, -0.32493103, 0.11993547, -0.033306092, 0.15407367, 0.021723194, 0.0844248, -0.16600822, 0.064339876, 0.107597895, -0.3393123, -0.08641745, -0.16103216, 0.22600196, -0.0832306, 0.2410962, 0.14801252, -0.26123473, -0.0012994348, -0.18664148, 0.33072436, 0.23512079, 0.045147777, -0.15348049, 0.009120386, 0.17592984, 0.04141408, 0.19067334, -0.44769266, -0.39199334, -0.0054855836, -0.18331002, -0.2885675, 0.12804103, 0.087323986, -0.12801853, 0.25114077, -0.21792904, -0.3880408, 0.095639236, 0.08040246, 0.37570757, 0.29200324, -0.056478336, 0.23977013, 0.35593566, -0.09412773, 0.03625531, -0.15094733, -0.24277294, -0.08143491, 0.14365028, 0.081388004, -0.07873746, -0.46760276, 0.025442382, 0.052550137, 0.23062564, 0.06286902, -0.14024691, 0.08032558, 0.09094763, 0.1246472, 0.20812823, 0.0711689, 0.043540653, 0.039579924, 0.065142855, 0.6284749, 0.12494538, 0.14756574, -0.08964636, 0.06386399, -0.019042801, -0.041250467, 0.009636619, 0.066675514, -0.6010096, -0.011960028, 0.006371821, -0.038977787, -0.20250942, 0.19481575, -0.43347898, 0.07891782, 0.027635934, 0.03471493, -0.047532886, -0.30425936, -0.31965145, 0.056340914, 0.009724702, 0.036641482, 0.012234016, -0.4576853, -0.14282371, 0.08573281, 0.27226117, -0.13715391, -0.40943527, 0.17433302, 0.11330189
-0.15673083, -0.011565706, -0.2212837, 0.07061665, -0.14785098, 0.1435921, 0.046664808, 0.08363764, 0.09797533, -0.18361011, -0.5491668, 0.29552338, 0.07884652, 0.16166481, -0.12470933, -0.07977222, -0.08513022, -0.06316229, -0.30195403, 0.24191102, -0.17769735, -0.09120532, -0.020552676, 0.036074787, -0.16038598, -0.04378233, 0.01975696, -0.06719198, -0.16060293, 0.064710416, 0.08417571, -0.03951151, -0.08161032, -0.12538989, -0.15469249, 0.007952959, -0.044324517, 0.0733705, -0.13804065, 0.40716487, 0.07173898, 0.04724549, 0.061670452, 0.39874807, -0.17239687, 0.16787797, 0.4015893, -0.15373518, 0.07717277, -0.13629448, -0.12667169, 0.372952, -0.0069003366, -0.1729663, 0.31568444, -0.110302925, 0.005675765, -0.15247153, 0.019731661, 0.27098462, -0.01448695, -0.2839601, -0.17312954, 0.07266403, -0.021989098, 0.11480569, -0.05225308, 0.29430857, -0.15306574, 0.22158787, 0.008518967, 0.12995838, 0.33501643, -0.15924405, -0.21474537, -0.024931539, -0.12730166, -0.06509011, 0.04887257, -0.054939236, 0.10704268, -0.148545, 0.07746415, -0.18245164, 0.036320034, 0.14621624, 0.21350126, 0.076545425, 0.17735113, -0.115071945, -0.59891427, -0.114548996, -0.26926294, 0.35218856, 0.36154535, -0.033084124, 0.21237181, -0.31456172, -0.28801808, -0.048749663, -0.19915202, 0.19344807, -0.05498172, -0.15001535, -0.18243596, -0.2828304, -0.17580168, -0.34101614, 0.3723154, -0.03833351, 0.031086737, -0.07060029, 0.16921157, -0.43731573, -0.27959967, 0.2668402, -0.022269435, -0.45361492, 0.06789716, -0.2835643, -0.554252, 0.15503746, 0.17051938, 0.13800097, -0.12067378, 0.015123312, 0.06201522, 0.46431404
0.22956127, -0.061503198, -0.18170135, 0.009626087, -0.3488896, -0.1901851, -0.02395408, -0.1828186, 0.061489806, -0.04910425, -0.66356546, 0.12160852, 0.087091655, 0.021072378, 0.027480016, -0.165342, -0.006108325, -0.13890983, -0.28482977, 0.025982775, -0.030404871, -0.09796844, 0.33222887, -0.031280227, -0.38146168, -0.039785143, 0.2012383, -0.12666842, 0.11996515, 0.0048182793, 0.10268793, -0.23585105, -0.0075895265, 0.1440789, 0.026894638, -0.16448279, 0.35993594, -0.027307713, -0.026527628, 0.47261712, 0.14341311, 0.26970494, -0.09311483, 0.34230316, 0.114903614, 0.2601125, 0.34943494, -0.16140456, -0.018580033, 0.19664183, 0.07406763, 0.3499129, 0.032923825, -0.03378098, 0.3287168, 0.12830536, 0.16405304, -0.16075365, 0.2204663, 0.5166117, -0.030578347, -0.046810307, -0.0021866446, -0.22356111, -0.09266461, 0.15217942, -0.08091691, 0.060357157, -0.02945125, 0.07504942, -0.39383116, -0.21993433, -0.053029727, -0.1670252, -0.14072962, 0.37923434, -0.052708644, -0.1226186, -0.15123309, -0.2685461, 0.052656673, 0.07197602, -0.011011668, 0.21461059, 0.004137371, 0.115453705, 0.015086561, -0.12513296, 0.06305245, -0.044617336, 0.03669963, -0.25388578, -0.11485892, 0.23012674, 0.11811973, -0.03403331, 0.1660232, -0.5920068, -0.27107793, 0.043704033, -0.00496649, 0.061761104, -0.14030516, 0.12526657, -0.39369658, -0.30253258, -0.16357647, 0.10102873, 0.022391869, -0.16282654, -0.05826642, 0.1450129, 0.04765414, -0.6809202, -0.19376452, 0.05014674, -0.1654157, 0.07625295, 0.15333916, 0.059633337, 0.31445292, -0.023867637, -0.027626857, 0.09162587, -0.022075316, -0.041911274, 0.08460438, 0.12636898
0.08455942, 0.1135189, 0.14321133, 0.0764711, -0.38142687, -0.04874646, 0.09234012, -0.15724884, 0.00085772236, -0.0008508249, -0.6361763, -0.06151724, 0.058130257, 0.124411136, 0.1322147, 0.12135148, 0.00283147, -0.5057733, -0.33185068, -0.053259596, 0.09992401, 0.0065359464, -0.13908091, 0.107248366, -0.31058452, -0.0015168702, -0.042137124, -0.10473388, 0.01372266, 0.12555672, 0.06978709, -0.11173388, 0.24696463, 0.04438742, 0.06677274, 0.07661008, 0.23652177, 0.20328653, -0.010022601, 0.33812234, 0.121105134, 0.25278395, 0.106608294, 0.030523792, 0.1090504, 0.3210306, 0.038405396, -0.20041259, 0.08049727, 0.26950616, 0.0007586959, 0.23237164, -0.081026435, -0.11655744, -0.16109443, 0.10105156, -0.07704585, -0.054608956, 0.3694073, -0.3798547, 0.0032737353, 0.19264281, 0.37974775, -0.4475017, -0.28886503, 0.042830847, 0.1443941, -0.013215344, -0.13473712, -0.0058138203, -0.4948463, -0.2754398, -0.25415808, -0.037660465, -0.07700837, 0.13974433, -0.17163824, -0.05109376, 0.0031657764, -0.080992326, -0.04832527, 0.047923964, 0.31381512, 0.043913145, 0.07458702, -0.10674996, 0.101744756, 0.0056662527, 0.2792115, 0.066285886, 0.20811927, -0.20121488, 0.1367927, 0.08467321, -0.004693742, 0.07846377, 0.09028274, -0.4737837, 0.28297314, -0.045204874, -0.09213301, -0.09961838, -0.18827651, 0.021472767, -0.14333214, -0.16298746, -0.33836216, -0.018038962, -0.051511128, -0.04166494, -0.13342404, 0.094374545, 0.17885762, -0.80791825, 0.04740931, 0.19406763, 0.115352795, 0.085976675, -0.1178983, 0.16484313, 0.43109244, -0.11731138, 0.15595247, 0.1297186, -0.026703667, -0.026931636, 0.09505696, -0.28421354
-0.20962115, 0.10462901, -0.103450045, -0.08710864, -0.5143606, -0.084300555, -0.0864568, -0.114753604, 0.28159365, 0.12463703, -0.6491814, 0.057301752, -0.017528925, -0.13475592, 0.07242015, 0.23871234, 0.11386358, -0.5725309, -0.36010468, -0.05592668, 0.087834775, -0.23589635, -0.06492965, 0.17948264, -0.17906865, 0.26989308, -0.022612948, -0.080600545, 0.1469201, -0.17671724, 0.08034581, 0.030525057, -0.025810521, -0.006729519, 0.038732477, -0.04224126, -0.0023083726, 0.13822022, 0.0011333744, 0.25729844, 0.19349626, 0.111514896, -0.060052652, 0.22317855, 0.060414106, -0.033652715, -0.006262016, -0.2011252, -0.0021546285, 0.06233426, -0.18141782, 0.2956042, 0.07966873, 0.16711822, -0.3301228, 0.22709495, 0.052008867, -0.058588527, 0.028074259, -0.6162726, -0.009344715, 0.087840065, 0.30501765, -0.23778073, -0.19283536, 0.22633526, -0.0015710453, 0.056960054, -0.12139789, 0.028149387, -0.1698072, -0.057146702, -0.32016638, 0.1206658, 0.10042279, -0.33889848, 0.12994757, 0.15466888, -0.19285592, -0.06095844, 0.010157034, 0.02383583, 0.15447937, 0.072253555, -0.0041271597, 0.171828, -0.10597375, 0.06061134, 0.015509411, -0.03681427, 0.09339317, -0.14138198, 0.12952298, 0.2020378, 0.028721968, -0.036873754, -0.12094166, -0.35319105, 0.24229857, 0.095753096, -0.08067939, 0.0069429246, -0.045594033, 0.057111282, -0.084528, -0.070624314, -0.43436494, -0.10763059, -0.30351067, 0.050440148, -0.0173743, 0.15179323, 0.3059628, -0.84908855, -0.26496214, -0.51738393, 0.22946157, 0.07157247, 0.1722319, -0.032175075, 0.06671062, -0.05810146, 0.052805576, -0.12466743, -0.0028697331, -0.18273558, 0.06472514, -0.4413997
-0.28087753, 0.15811081, -0.09595518, 0.0461021, -0.45493397, 0.27597222, 0.24243999, -0.09842062, 0.29394463, 0.097364455, -0.40079665, 0.21417724, -0.40141287, -0.024107905, -0.026019422, 0.11237708, 0.19016936, -0.35571554, -0.2877664, -0.06525885, 0.15981935, -0.04270962, -0.08582971, 0.19901496, -0.3373059, 0.10740063, 0.17529003, 0.0488762, 0.18155597, -0.6550814, -0.081354745, -0.2110486, -0.1129965, 0.1528624, 0.006419531, 0.07802236, 0.21623842, 0.1117665, 0.11252944, 0.27310404, 0.15202324, 0.46449935, 0.24034905, 0.19535768, 0.20111877, 0.10735749, 0.0126914885, -0.16522233, -0.12248584, -0.104846686, -0.059867322, 0.18191685, 0.14244838, 0.31529793, -0.45625648, 0.07575878, -0.1311501, -0.19096592, -0.3989973, -0.387088, 0.10161141, -0.035471953, 0.14314082, -0.2703824, -0.22667658, 0.16859418, -0.11949323, 0.32852197, 0.079708, 0.16718057, 0.18124744, -0.043833196, -0.35087875, 0.07401768, 0.004000295, -0.1874533, -0.0017056043, 0.070591904, -0.111832775, 0.27967083, 0.074146174, -0.14201443, -0.044306945, 0.09864248, 0.12119572, 0.28229958, 0.046885025, -0.01431467, 0.20332415, -0.08880993, -0.106676936, -0.214352, -0.028971888, 0.24330142, 0.0047308076, 0.0039967527, -0.27566314, -0.4710213, 0.052845504, 0.075705916, -0.122622855, -0.15025061, 0.06970756, -0.082648896, -0.25270665, 0.0032247347, -0.5790817, 0.111173734, -0.2506619, 0.057700492, -0.05153453, 0.03720413, 0.32559627, -0.579252, 0.22701553, -0.3708998, 0.011072479, -0.15341432, 0.062322706, -0.32945898, -0.1735053, -0.049511835, 0.25117558, 0.15323545, 0.036946636, -0.059634216, 0.10928121, -0.33507106
-0.08637632, 0.39190373, -0.23652288, -0.14945993, -0.0974062, 0.20782544, 0.2367898, 0.022249313, -0.06225652, 0.09225518, -0.091598414, 0.2953877, -0.1580965, -0.20288016, -0.28721172, -0.17593004, 0.3937438, -0.039010715, 0.027318534, 0.10483741, 0.02032578, -0.06948542, 0.20075552, -0.07531896, -0.0027352595, -0.13918525, 0.20090762, 0.30160335, 0.5901963, -0.4536853, -0.13706487, 0.26069334, 0.11295647, 0.21334739, -0.29291955, 0.09397834, 0.09310414, 0.005909924, 0.08372432, 0.3470219, 0.31453118, 0.44165757, 0.0953918, 0.32385656, 0.0371153, 0.23454833, 0.36376467, 0.16079228, -0.09836503, -0.42670104, 0.04876337, 0.17978138, -0.18720484, 0.14351343, -0.09431201, 0.20540166, 0.11861875, -0.03643471, -0.28521293, -0.055852607, 0.37067017, 0.11446407, 0.2805779, 0.085981324, 0.13611546, 0.2389464, 0.040570673, -0.013757918, 0.10601127, 0.12641981, 0.31339875, -0.25245807, -0.3406477, 0.14505889, 0.17174059, 0.15006575, 0.061871897, -0.08030152, -0.09609266, 0.17465053, -0.0007632126, -0.41799304, -0.1388566, -0.1897162, 0.11471265, 0.056338873, -0.12998867, 0.121691264, 0.0074411663, 0.11690047, 0.09365843, -0.40382093, -0.12691283, 0.3094016, -0.12615038, 0.03373528, -0.2110671, -0.05057914, -0.08479788, -0.021856794, 0.18075782, -0.19507217, 0.31258705, 0.13418894, -0.1193054, 0.17263095, 0.005167064, 0.21453424, -0.255286, 0.0446293, 0.03885937, -0.040231764, 0.31558973, -0.05868819, 0.15701741, -0.06967426, 0.050337955, -0.09701868, -0.018489193, 0.07889616, -0.20370433, 0.46897694, 0.16387455, 0.37885454, 0.13368888, -0.04084211, -0.0111967735, -0.10071796
-0.33109826, -0.08140814, -0.10324258, 0.07842156, -0.11582169, -0.35382894, -0.43589926, -0.10639928, 0.09514199, -0.14449307, 0.10365255, -0.032402065, 0.08908482, 0.14504299, 0.087320544, 0.09209205, -0.14896809, 0.066703476, -0.03045122, 0.24973258, 0.32658267, 0.1398852, 0.14957663, -0.33145678, -0.18887256, -0.19776233, 0.04752368, 0.0633174, 0.06409265, -0.29300243, 0.1883392, 0.051990904, 0.30511078, -0.16974066, -0.0719293, 0.0020285835, -0.05171233, 0.24299788, -0.19987962, 0.20714207, 0.25144762, 0.10266659, -0.051776443, 0.049196906, 0.005514889, 0.09013386, -0.02597066, 0.122232206, -0.21129793, 0.10212802, -0.097418614, 0.26259357, -0.018005244, -0.1914866, -0.080060214, -0.23600465, 0.17603244, -0.15438953, -0.17607138, 0.028055308, 0.085361466, -0.348131, 0.34999058, -0.14775982, 0.104468584, -0.1770275, -0.07783185, 0.0723574, -0.059971545, 0.0053574773, -0.101744235, 0.0992844, 0.24363935, -0.10594667, -0.33272767, 0.17783625, -0.089045, 0.100132726, -0.16835487, 0.1369889, -0.30902696, 0.1883483, 0.10854464, 0.2461416, 0.065830186, -0.09131782, 0.19539462, 0.34972274, -0.014759392, 0.26233912, -0.20572917, 0.36416933, 0.03613596, 0.03811205, 0.3787659, -0.03278824, -0.2534421, 0.16436669, 0.12272805, -0.023565322, -0.2590984, 0.10385763, -0.27031872, 0.040604062, 0.032612324, -0.09993119, -0.20669961, 0.3347074, 0.2256639, -0.21868785, -0.28188875, 0.30436647, 0.31795144, -0.17383234, -0.27957013, 0.14339939, -0.18941033, -0.2653669, 0.23187461, -0.016104482, 0.0052984394, -0.073914185, 0.08380604, 0.06385655, 0.19830021, 0.1689271, 0.08735663, -0.090011545
